6526 32
3433 0.197306 0.123733 0.003581 -0.016722 0.236723 -0.202350 -0.032647 -0.149786 0.331083 0.024996 0.054371 -0.139284 -0.104199 0.026842 0.272971 0.079211 -0.103486 -0.262787 -0.049825 -0.054087 -0.185987 -0.041635 -0.190803 0.148288 -0.187260 0.046113 0.018289 -0.299813 0.101432 -0.106282 0.437527 0.189316
5991 0.212057 0.119288 0.188263 0.001128 0.213303 -0.168324 0.042538 -0.087578 0.400344 0.028513 0.291979 -0.186879 0.041467 0.109833 0.269647 0.076118 -0.259192 -0.290957 -0.029810 -0.068622 -0.279740 -0.079499 -0.104877 0.140902 -0.259348 0.231546 0.065532 -0.240163 0.056156 -0.019943 0.381644 0.159745
468 0.275567 0.179430 0.033474 0.077687 0.263643 -0.158745 0.066244 -0.215817 0.272004 -0.092879 0.014499 -0.210283 -0.032744 0.199592 0.406107 0.133023 -0.108125 -0.158399 -0.081841 -0.227071 -0.133261 -0.020006 -0.191709 0.126769 -0.043445 0.106367 0.036877 -0.239177 0.160910 -0.055165 0.558060 0.272724
4595 0.205383 -0.018358 -0.118945 0.062066 0.120833 -0.105192 -0.053698 -0.134433 0.347056 0.080410 0.043701 -0.183230 0.034554 0.162240 0.194782 -0.002755 -0.021732 -0.238921 -0.022577 0.084889 -0.032230 -0.060601 0.105414 0.081454 0.033400 -0.099062 -0.154616 -0.443535 0.200503 -0.022716 0.207854 0.153849
3226 0.208071 0.209072 -0.065878 -0.153793 0.277121 -0.111914 -0.001421 -0.182794 0.246482 -0.021367 0.013183 -0.076457 -0.162596 0.044083 0.382118 -0.092568 0.168795 -0.236453 -0.097648 -0.045598 -0.075174 0.117718 -0.218001 0.077622 -0.301299 -0.184225 -0.116327 -0.164654 0.155114 -0.185606 0.554840 0.310015
6233 0.198463 0.193881 0.095120 -0.075610 0.274659 -0.102537 0.011969 -0.266754 0.328075 0.047844 -0.022651 -0.138332 0.029051 0.004908 0.245143 0.187184 -0.274009 -0.348296 -0.112471 -0.148353 -0.063703 -0.127299 -0.321791 0.201028 -0.296505 0.007908 -0.005803 -0.322349 0.087196 -0.028178 0.529577 0.094731
386 0.087074 -0.139573 0.033868 0.233845 0.509738 -0.348956 -0.070812 -0.187697 0.468245 0.026398 0.257981 -0.020438 -0.201894 0.104273 0.206124 0.159886 -0.177849 -0.146426 0.041771 -0.001557 -0.460644 0.033043 0.060669 0.198620 -0.246726 0.439890 0.123762 -0.269094 0.017291 0.009447 0.187337 0.116305
4554 0.108059 -0.081756 0.013989 -0.050545 0.180497 0.105298 -0.159829 -0.159147 0.343902 0.116391 0.228584 -0.280575 -0.007300 0.262060 0.140463 0.076137 0.051740 -0.196818 -0.041434 0.180948 -0.023616 -0.155251 0.149033 0.110262 0.054319 -0.104070 -0.186843 -0.311074 0.259002 0.005785 0.248057 0.049220
2439 0.144210 -0.146406 -0.075214 0.036134 0.399903 -0.234170 -0.015085 -0.062248 0.364602 -0.110055 -0.101488 -0.208249 -0.073282 -0.076543 0.507347 -0.197173 0.008185 -0.146741 -0.146417 0.004214 -0.159446 0.045878 -0.239058 0.193139 -0.057623 0.187614 0.047463 -0.279796 0.117304 -0.163572 0.278770 0.276534
4905 0.130947 0.093304 -0.281084 -0.324596 0.195443 -0.268330 0.102866 -0.405700 0.147262 0.297169 -0.007884 -0.213336 -0.297388 -0.397173 0.228463 0.389047 -0.395326 -0.490976 -0.130372 -0.075058 -0.500563 -0.228851 -0.473193 0.010961 -0.192446 -0.121275 0.041815 -0.206184 0.643979 0.018835 0.675179 -0.175308
3381 0.425605 0.001519 -0.086032 0.003905 0.185310 -0.165758 -0.053589 -0.403839 0.269918 -0.388214 -0.473023 -0.173003 -0.144068 0.061198 0.250747 -0.029141 -0.126506 -0.102589 -0.344874 0.001742 -0.204088 0.018588 -0.373357 0.309902 0.126078 0.050669 0.022468 -0.265765 0.303835 -0.197260 0.447500 0.102581
4156 0.144909 0.344838 0.182207 -0.013263 0.169896 -0.121353 0.086885 -0.038845 0.561746 0.147632 0.302510 -0.149908 -0.054669 0.036636 0.118458 0.085567 -0.240346 -0.471234 0.036832 -0.072305 -0.222109 -0.199412 -0.100478 0.125592 -0.234856 0.205450 0.074108 -0.190949 -0.020459 -0.216702 0.350630 0.082427
5140 0.396961 0.227042 0.031746 0.141872 0.249779 -0.269875 -0.116427 -0.148861 0.121695 -0.203826 -0.094106 -0.220600 -0.069340 0.068291 0.398811 0.003811 0.088720 -0.115052 -0.124562 -0.056517 -0.155569 0.310299 -0.249185 0.174202 -0.134668 -0.212911 0.077645 -0.216146 0.065770 -0.289109 0.327825 0.331472
217 0.092183 0.372787 -0.006039 -0.282324 0.473609 -0.091734 -0.056593 -0.171344 0.304768 -0.134866 -0.107232 -0.104650 -0.121985 0.023453 0.313998 0.128984 -0.121613 -0.282926 -0.036314 -0.116093 0.154825 -0.220630 -0.180963 0.332294 -0.115501 0.073532 0.092299 -0.268073 0.201867 -0.181341 0.458859 0.381655
7 -0.058227 0.033949 -0.065684 -0.097410 0.354357 -0.333131 -0.222586 -0.030387 0.353613 0.270721 -0.101295 -0.106568 0.031196 0.063219 0.204634 0.080687 0.119188 -0.158571 0.005024 0.051296 -0.316123 -0.026648 0.058524 0.032029 -0.032646 -0.135421 -0.095221 -0.177276 0.111994 -0.259434 0.155604 0.020487
3288 0.333288 -0.050528 0.052042 0.067646 0.343566 0.123683 -0.162697 -0.194043 0.348708 0.037928 0.156538 -0.145603 0.006474 0.169668 0.251182 0.032288 -0.203689 -0.138341 0.002494 0.153709 -0.021180 0.004420 0.167109 -0.020225 0.024374 -0.065534 -0.217159 -0.193858 0.246316 -0.113777 0.161100 0.025938
3813 0.054722 0.318595 0.075337 -0.195539 0.201497 -0.012181 -0.188798 -0.312446 0.214889 0.183712 0.032697 -0.011283 0.057324 -0.227481 0.302640 -0.021383 0.129830 -0.109934 0.004753 -0.029496 -0.060964 0.003814 -0.095306 0.366381 -0.094384 0.093638 0.036170 -0.479181 0.202327 0.127873 0.301208 0.124658
529 0.124697 -0.067872 -0.144000 -0.022115 0.260105 -0.106974 0.006556 -0.171246 0.204352 -0.060115 0.177039 -0.363341 -0.015334 0.128830 0.515438 0.022834 0.085051 -0.049971 -0.082382 0.150766 -0.177108 0.074209 0.301532 0.190775 0.056662 -0.093472 -0.057031 -0.303324 0.179386 0.152403 0.061505 0.320706
593 0.054789 -0.162665 0.005297 -0.048415 0.161252 -0.077022 -0.155358 -0.148179 0.269801 0.199659 0.108707 -0.236339 0.055871 0.199806 0.159167 0.109391 0.111086 -0.245828 -0.049027 0.167410 -0.187122 -0.033239 0.208363 0.020090 0.073519 -0.129107 -0.115714 -0.306838 0.247155 -0.047321 0.271743 0.072896
4871 0.143736 0.217066 0.013919 -0.189582 0.421763 -0.030506 -0.232884 -0.257129 -0.016660 -0.024211 -0.136684 -0.005703 -0.114621 -0.088360 0.225305 -0.131441 0.016351 -0.191552 0.005519 0.026947 -0.129203 -0.035167 -0.136335 0.299445 0.077301 -0.059518 -0.054485 -0.276254 0.166325 -0.175119 0.003121 0.029791
5124 0.161787 0.215201 -0.494123 -0.084004 0.346805 -0.328141 -0.068035 -0.239312 -0.109066 -0.110321 -0.304930 -0.074171 -0.147495 0.092383 0.347054 0.001635 0.385153 -0.034272 -0.164222 -0.069098 -0.293555 0.141296 0.122064 0.134425 -0.187100 -0.482719 -0.204378 -0.244500 0.179992 -0.320472 0.279444 0.336578
1931 0.199328 0.235579 -0.069868 -0.054348 0.402775 -0.134804 -0.198355 -0.197864 0.060534 -0.003898 -0.317080 -0.153142 -0.149267 -0.219780 0.262435 -0.092350 0.114209 -0.107996 -0.087460 0.020406 -0.074207 0.121608 -0.302224 0.150075 -0.061492 -0.060632 -0.095280 -0.395164 0.090702 -0.187397 0.328008 0.149281
3222 0.101622 -0.214383 0.024174 0.033179 0.484013 -0.468134 0.159454 -0.102223 0.554930 0.048132 0.095952 0.053375 -0.363345 0.040976 0.146246 0.284910 -0.138818 -0.303834 0.123666 0.089770 -0.433245 -0.165113 0.140452 0.380777 -0.322585 0.402299 0.089412 -0.346584 0.238862 -0.084579 0.271420 -0.017094
1842 0.173010 -0.163929 0.005434 -0.014999 0.298001 -0.277570 -0.012784 -0.012029 0.284098 -0.030356 -0.058732 -0.206274 -0.047119 0.042371 0.498136 -0.213329 0.071135 -0.160873 -0.174285 0.016472 -0.080434 0.030600 -0.174411 0.177099 -0.053474 0.142653 0.047554 -0.292393 0.131291 -0.172808 0.243867 0.203031
822 0.110915 0.094439 0.096114 -0.123254 0.254228 -0.252170 -0.400846 -0.258961 0.010271 0.137290 -0.127448 -0.157733 -0.059928 -0.007368 0.249442 -0.013027 0.009353 -0.204663 -0.061389 -0.116621 0.009342 -0.147180 -0.185296 0.192721 0.067930 0.032021 -0.095286 -0.295409 0.010734 -0.190372 0.113494 0.056701
2181 0.035032 0.013002 -0.104740 0.005611 0.332093 -0.224300 -0.156649 0.007272 0.252207 -0.172954 0.101799 -0.172621 -0.123022 0.162098 0.481961 -0.141754 -0.144964 -0.373106 -0.038124 0.019297 -0.306285 0.166618 -0.287833 0.100852 -0.100623 0.405641 0.028944 -0.169525 0.071274 -0.003904 0.221543 0.060108
4205 0.028987 0.225082 -0.041430 -0.130973 0.523493 -0.033594 -0.221300 -0.153067 0.034183 -0.029042 -0.147546 0.033582 -0.100544 -0.126115 0.279972 -0.159014 0.105513 -0.235166 0.002400 -0.096295 -0.160827 0.072166 -0.156537 0.252374 0.042867 -0.079167 -0.011752 -0.307350 0.015669 -0.323670 -0.019124 0.075451
2091 0.272385 0.105206 0.074659 0.126620 0.225491 -0.071596 0.050325 -0.075620 0.125269 0.110458 0.049205 0.015771 -0.131342 0.158135 0.285106 -0.253985 -0.110384 -0.194001 -0.077827 -0.038151 -0.317820 -0.116332 -0.023751 0.148786 -0.163690 -0.025998 -0.249686 -0.267196 -0.125438 -0.121303 0.032739 -0.071162
3873 0.081770 -0.046642 0.039010 -0.122895 0.278648 0.019600 -0.237691 -0.137362 0.283597 0.045743 0.134740 -0.250542 -0.039409 0.313671 0.162671 0.063774 0.018546 -0.191754 0.130235 0.039979 -0.141599 -0.051579 0.112882 0.037059 0.072093 0.001344 -0.150330 -0.287117 0.143298 -0.144681 0.157840 0.026624
6244 0.267412 -0.168410 0.023872 -0.014142 0.048145 -0.062901 -0.086250 -0.259272 0.284405 0.273428 0.008503 -0.053326 0.100758 0.186435 -0.048164 -0.015669 0.045006 -0.312125 -0.024400 0.141959 -0.259158 0.096060 0.153430 0.114178 -0.052946 0.041031 0.012159 -0.406149 0.303283 -0.153887 0.188528 -0.085258
2325 0.272103 0.017996 0.067048 0.083779 0.221182 0.123031 -0.138923 -0.256613 0.177770 -0.043849 0.033396 -0.123766 -0.009988 0.022290 0.199598 -0.437675 -0.050579 -0.045045 -0.093319 0.092313 -0.121119 -0.003265 -0.102951 0.264466 0.018796 -0.083487 -0.350752 -0.248779 0.078127 -0.107151 0.217766 -0.181941
3587 0.054329 0.398642 -0.069500 -0.093493 0.276136 -0.142607 -0.272860 -0.314116 0.122029 0.238433 -0.067343 -0.005756 -0.016821 -0.114894 0.203918 -0.051124 0.184337 -0.243332 -0.109388 0.120527 -0.229506 -0.006638 -0.292514 0.275476 -0.191615 -0.147010 -0.105696 -0.076928 -0.050849 -0.035996 0.290935 0.441491
5612 0.163654 0.073908 0.058115 -0.133632 0.230533 -0.146240 -0.485277 -0.094872 -0.077807 0.186553 -0.062566 -0.081881 -0.036670 0.016828 0.301909 -0.148072 0.028420 -0.305467 -0.122032 -0.091968 -0.063040 -0.168909 -0.094709 0.159601 0.070274 0.001126 -0.129024 -0.149364 -0.049850 -0.197059 -0.032845 0.030238
1493 0.043785 -0.027501 -0.043718 -0.164294 0.144083 -0.097498 -0.167969 -0.090454 0.098042 -0.138649 -0.031324 -0.203428 -0.005039 0.217173 0.199101 -0.053915 0.261793 -0.447909 -0.193077 -0.087509 -0.183420 0.054064 0.127749 0.028772 0.083401 0.068717 -0.111890 -0.269870 0.199598 -0.120115 0.186484 -0.054132
4540 0.254350 0.231895 0.042779 0.103982 0.355393 0.153359 -0.182664 -0.123668 0.009264 -0.098135 0.180849 0.048046 0.118823 -0.031897 0.354601 -0.224455 -0.098436 -0.175180 -0.159934 0.033161 -0.190301 0.201065 -0.106393 0.187088 0.048330 0.169186 0.027054 -0.288818 0.194818 -0.162623 -0.019821 -0.133001
788 0.233324 0.009477 0.152936 0.048402 0.220093 -0.111996 -0.050881 -0.010174 0.222783 -0.002230 -0.066969 0.064401 -0.092086 0.108428 0.156589 0.031190 -0.312035 -0.383067 -0.230986 -0.116278 -0.437634 0.013301 0.045686 0.074345 -0.124695 0.024022 -0.120836 -0.364669 -0.143306 -0.129277 0.058360 0.138016
6067 0.039794 -0.018762 -0.050406 0.001345 0.286838 0.088643 -0.098039 0.007591 0.163264 -0.136906 0.023759 -0.245580 0.057695 0.283383 -0.017600 -0.269192 0.204236 -0.352278 0.010161 -0.053040 -0.320692 0.179654 -0.053154 0.202552 0.125246 0.024969 -0.024120 -0.282217 0.383934 -0.074409 0.165577 -0.106362
4437 0.265940 0.052021 -0.084996 0.056927 0.311725 0.242046 -0.176978 -0.059449 0.155437 -0.019381 0.236523 0.003009 0.106529 0.254459 0.243038 -0.173838 -0.041017 -0.187984 -0.032829 0.159776 -0.111965 0.004369 0.153977 -0.052039 0.062853 -0.046850 0.023215 -0.296846 0.256318 -0.163742 0.182028 0.044325
6481 -0.004516 0.136101 -0.072528 0.248552 0.137554 -0.269956 0.024788 -0.171250 0.138648 -0.101025 0.183682 0.017175 0.001094 -0.092982 0.395753 -0.328280 0.042072 -0.274082 -0.060379 -0.179526 -0.370241 0.068005 0.020695 0.136335 -0.000410 -0.129635 0.038028 -0.473477 0.113138 0.175892 0.074694 -0.250865
5625 0.129054 -0.152704 -0.138078 -0.095746 0.419414 0.032778 0.029528 -0.129398 0.054154 0.004656 0.056509 -0.367611 -0.023603 0.341427 0.395085 -0.167105 0.008851 -0.198737 0.057412 0.055742 -0.160174 -0.052200 -0.031049 -0.135804 -0.027644 0.185141 -0.104869 -0.295456 0.017943 -0.229130 0.223744 0.034406
3658 0.237836 0.102775 0.038886 -0.047542 0.156038 0.128098 -0.236022 -0.246185 0.091615 -0.006914 0.050644 0.110705 -0.048463 0.173967 0.291209 -0.388468 0.086225 -0.155441 0.103463 -0.080118 -0.073633 0.030255 -0.083448 0.169951 0.058883 -0.049197 -0.011768 -0.349072 0.225964 -0.219399 0.130499 -0.053866
701 0.223445 0.168067 0.156080 0.059971 0.089254 0.144929 -0.321108 -0.220370 0.058092 -0.093438 0.034294 0.005178 -0.028668 0.193358 0.320632 -0.227175 -0.047099 -0.037035 -0.005720 0.001734 -0.225727 0.026500 0.052647 0.187334 0.065044 0.074899 -0.038819 -0.336441 0.194570 -0.159729 0.053184 -0.107969
1513 0.036003 0.143423 -0.042879 -0.010471 0.159825 -0.233917 -0.114147 -0.165065 0.243108 0.151964 0.250987 -0.227539 0.001490 0.230811 0.064980 -0.156654 0.073614 -0.163509 -0.189304 0.084752 -0.091400 -0.095878 0.075920 -0.112331 0.017756 -0.127448 -0.236547 -0.181653 0.178772 -0.131152 0.127473 0.090769
5320 -0.067600 -0.028795 0.040133 -0.168716 0.066486 -0.130624 -0.066560 0.085259 0.302736 -0.099469 0.075235 -0.055563 0.203142 0.252461 0.310344 -0.301719 0.040368 -0.375418 -0.074514 -0.154360 -0.470782 -0.028593 -0.213023 0.182463 -0.153444 0.102707 0.081147 -0.197984 0.201259 -0.348679 0.391688 0.111497
1298 0.144330 -0.071179 0.030132 0.031515 0.054334 -0.109074 -0.102749 -0.093045 0.168308 0.123781 -0.049886 -0.312980 0.132316 0.271462 0.233048 -0.119786 0.116872 -0.230757 -0.165529 0.119053 -0.034575 0.186253 -0.009818 0.047972 -0.063263 0.019244 -0.065432 -0.436840 0.267155 -0.081806 0.074447 -0.100272
5797 -0.087549 0.407659 -0.029829 -0.055360 0.464211 -0.198242 -0.060905 0.015151 0.163354 0.163864 0.124409 -0.226094 -0.220141 -0.135426 0.180322 0.006394 0.015493 -0.154235 0.174728 0.092748 0.010470 0.184275 0.150514 0.115205 -0.231925 0.099381 -0.098938 -0.554651 0.031516 -0.232266 0.274347 0.155582
270 -0.017547 0.034997 0.081949 0.002114 0.198078 0.020122 -0.091073 -0.226860 -0.007931 0.088764 0.089797 -0.040158 0.107937 0.104533 0.378900 -0.225372 -0.109069 -0.263618 -0.319469 -0.217027 -0.281393 -0.034907 -0.108251 0.199518 -0.158592 -0.325716 -0.005995 -0.342595 -0.074516 -0.016192 -0.085756 -0.140618
2635 0.018925 0.049489 0.030562 0.303181 0.128467 -0.248814 -0.064907 -0.153387 0.209615 -0.033388 0.068156 -0.101254 0.129054 -0.036026 0.303854 -0.461116 0.012548 -0.233851 0.039623 -0.023663 -0.231146 0.267431 0.037885 0.232780 -0.117716 -0.113573 -0.049817 -0.387252 0.199588 0.048093 0.089178 -0.072329
652 0.243358 0.388545 0.133046 0.073282 0.226982 -0.066201 -0.140314 -0.272072 -0.039353 0.185917 0.093531 -0.105621 -0.143087 0.163542 0.285506 -0.001346 -0.130639 -0.207941 -0.196102 0.017432 -0.040652 -0.142376 -0.089667 0.055344 -0.033274 -0.057094 -0.148845 -0.192001 -0.203722 -0.184572 0.016451 -0.031448
3800 0.127390 0.027367 -0.072243 0.061640 -0.015404 0.088879 -0.455836 -0.341229 0.213673 0.028551 0.000465 -0.023371 -0.094227 -0.071127 0.226257 -0.219891 -0.212087 -0.114135 -0.188717 -0.138213 -0.310440 0.013028 -0.066645 0.321049 0.212946 -0.024503 0.125765 -0.351360 0.158266 -0.123709 0.098560 -0.104327
5985 0.188667 -0.039920 -0.038597 0.029844 0.145580 0.153713 -0.079571 -0.188258 0.308606 0.191751 0.059638 -0.232501 -0.123294 0.193187 0.205787 -0.093482 0.018032 -0.115533 -0.055915 0.160233 0.070193 -0.154671 0.111494 0.265741 0.180331 -0.082405 -0.044700 -0.423779 0.200624 -0.068537 0.102214 0.194231
1528 0.393865 0.063397 0.307868 -0.009584 0.097036 0.115714 -0.076643 -0.194102 0.167236 0.007777 0.042517 -0.092197 0.023517 0.212035 0.271112 0.341090 -0.099498 -0.398646 -0.150517 -0.389245 -0.025268 -0.079575 -0.441630 0.215385 -0.269178 -0.340073 0.147620 -0.533559 0.215555 0.085084 0.458015 0.228682
3284 0.117508 0.103450 0.232065 0.001344 0.146286 -0.132441 -0.101318 -0.152543 0.500476 -0.075183 -0.001260 -0.215523 0.093523 0.089618 0.284929 -0.021617 0.174073 -0.217899 -0.098013 -0.172290 -0.213687 -0.302149 0.011044 0.125690 0.061893 0.175337 -0.035501 -0.163732 0.087399 -0.009466 0.058424 0.311822
1074 0.494841 0.219081 0.048308 0.183125 0.210131 0.091290 -0.062286 -0.125407 0.079286 0.060664 0.016701 0.109575 0.113879 0.039808 0.162880 -0.271738 -0.191096 -0.222492 -0.184401 0.052501 -0.363933 0.112188 -0.019610 0.059075 0.175662 0.023604 -0.060242 -0.073142 0.335298 -0.199556 -0.047758 0.016859
1322 0.418641 0.397796 0.067212 -0.224497 0.255198 -0.199510 0.005956 -0.280842 0.341168 -0.284363 -0.157521 -0.075540 -0.059340 0.006031 0.308194 0.085943 -0.030028 -0.368984 -0.170390 -0.312110 0.073786 -0.104322 -0.265530 0.239380 0.152365 -0.062265 -0.012805 -0.048663 0.227298 -0.246928 0.472977 0.247117
2889 0.160822 0.237900 0.089154 0.124996 0.325309 -0.049947 -0.152007 -0.136707 0.186929 0.119909 0.041180 -0.001146 0.044098 0.003972 0.156277 -0.219670 0.016840 -0.128415 -0.088295 -0.001241 -0.281131 0.001463 0.040529 0.083110 0.036249 0.167356 -0.252811 -0.143202 0.104776 0.042643 0.053100 0.388930
4479 0.358350 0.220535 0.134058 0.131874 0.370611 0.201401 -0.157311 -0.058844 0.081357 -0.057351 0.163903 0.154122 0.169872 -0.081353 0.343840 -0.303711 -0.061430 -0.137582 -0.264296 0.085934 -0.216748 0.051421 -0.021744 0.155482 0.006641 0.197584 -0.006251 -0.216184 0.083858 -0.155509 0.027799 -0.018541
1489 0.410800 -0.069842 0.095208 0.142018 0.057755 -0.130503 0.029214 -0.170525 0.252875 0.271364 -0.011821 0.129499 0.015027 0.050734 0.111538 -0.134158 0.053068 -0.287661 -0.024757 0.293281 -0.328217 0.188436 0.116795 0.317735 -0.273851 0.102129 0.100967 -0.551303 0.005567 -0.090513 -0.135163 -0.092018
1569 0.133065 0.109525 -0.046663 0.204306 0.245980 -0.005173 -0.056481 -0.043603 0.112786 0.063473 -0.097934 -0.104436 0.067136 0.117465 0.185507 -0.180341 -0.030954 -0.320986 -0.023194 0.008303 -0.210004 0.315376 0.207158 0.012691 -0.028583 0.170585 0.001556 -0.353065 0.392060 -0.022979 0.180403 0.073012
5295 0.196055 0.133706 0.096462 0.028828 0.119445 -0.007743 -0.039011 -0.291599 0.167110 0.029913 0.031765 -0.048595 0.048656 -0.130107 0.164064 -0.456919 0.072466 -0.182120 -0.034010 -0.127593 -0.355014 -0.101129 -0.055840 0.309016 0.362731 0.031328 0.044210 -0.185472 0.207458 -0.084803 0.216193 0.068585
740 0.220684 0.234784 0.241551 0.142854 0.284307 0.072856 -0.303700 -0.229146 0.095856 0.033859 0.104269 -0.006366 -0.095167 0.263697 0.287209 -0.308367 -0.094896 0.004209 0.069289 0.020701 -0.146398 -0.277728 -0.175769 -0.008929 -0.030455 0.006359 -0.213178 -0.165813 0.042435 -0.079689 -0.074080 -0.154862
4637 0.036437 0.033269 0.057345 -0.022327 0.140454 -0.193398 -0.072499 -0.083101 0.094716 0.313928 0.170631 -0.166511 -0.142202 0.260276 0.286391 -0.156154 -0.018932 -0.085675 -0.211981 -0.009650 -0.179729 0.133519 0.155555 0.079901 -0.126144 -0.234321 -0.189133 -0.267481 0.005691 -0.089697 0.095969 0.064519
5034 0.228171 0.193684 0.123233 0.083858 0.178063 -0.127007 -0.266143 -0.256197 0.072257 -0.007440 0.218788 -0.084406 0.122839 0.310770 0.249430 -0.265184 -0.014652 -0.132591 -0.018703 0.060919 -0.323109 -0.051478 -0.227338 0.082078 -0.118219 0.031156 -0.209075 -0.081772 -0.235918 0.007994 0.224177 0.016407
4037 0.107376 0.158115 0.129687 0.055125 0.069424 -0.123892 -0.036385 -0.141437 -0.099730 -0.071869 -0.000565 0.029950 -0.056532 0.314377 0.149387 -0.316750 -0.198918 -0.447087 0.001494 -0.148752 -0.262267 -0.149689 0.018702 0.039248 0.037232 -0.157848 -0.161408 -0.410661 0.050660 0.014013 0.012036 -0.008080
5743 0.198557 0.140822 0.071888 0.169788 0.148378 -0.047670 -0.223845 -0.237053 0.059174 0.056521 -0.029408 -0.063538 0.017585 0.078000 0.268841 -0.220050 -0.067392 -0.101541 -0.158438 0.138996 -0.209094 0.049356 -0.061714 0.047945 -0.057198 -0.176378 0.050237 -0.280030 0.226202 -0.108585 0.109661 -0.088680
3672 0.183066 0.192861 -0.256654 -0.085801 0.209160 -0.126447 -0.285857 -0.087917 0.065192 0.085236 -0.015515 -0.264098 -0.240125 0.024562 0.273250 -0.012807 0.058997 -0.317993 -0.048922 0.128353 0.113981 -0.070917 -0.043794 0.001343 0.021843 -0.119387 -0.141384 -0.363253 0.079337 -0.159783 0.134450 0.205159
5506 0.144099 0.265932 0.008973 0.151415 0.163103 -0.232026 -0.300206 -0.068699 -0.083157 0.067206 0.215895 -0.170498 -0.115141 0.193630 0.223180 -0.181146 0.066075 -0.135290 0.003966 -0.009904 -0.188655 -0.269501 -0.109936 0.084526 -0.007080 0.184770 -0.162915 -0.298255 -0.124219 -0.120887 0.112289 -0.011628
1546 0.152239 0.205749 0.314496 -0.061067 0.223526 -0.043540 -0.049938 -0.108777 0.039162 0.129048 0.149018 -0.074493 -0.126996 0.157308 0.259776 -0.245210 -0.032172 -0.099468 -0.083336 0.042138 -0.248537 -0.108596 -0.157009 0.157246 -0.041941 0.108393 -0.211716 -0.215104 -0.055602 -0.285877 0.047021 -0.065757
489 0.157220 0.255369 0.178927 -0.077432 0.116054 -0.194658 -0.389628 -0.206756 -0.128559 0.096879 0.118259 0.021326 0.025536 0.127784 0.450634 -0.113580 -0.083158 -0.427652 0.026529 -0.180935 -0.040834 -0.254414 0.006298 0.143996 -0.022284 0.131251 -0.104264 -0.105799 0.032825 0.000409 -0.039234 -0.063248
2699 0.087973 0.260358 -0.051767 -0.048959 0.283885 -0.228392 -0.091265 -0.204636 -0.054209 0.030158 0.065677 -0.290768 0.018327 0.274543 0.024291 0.037462 -0.034950 -0.151506 -0.219912 0.172585 -0.193390 0.035445 0.113962 0.232150 0.039124 -0.253948 -0.013368 -0.184827 0.187363 -0.207119 0.017264 0.141723
968 0.018211 0.151067 0.010512 -0.088795 0.223597 0.112797 -0.124256 -0.336359 0.089246 0.115005 0.122982 0.086903 -0.098927 -0.008724 0.237761 -0.363946 -0.169909 -0.119332 -0.270667 -0.212943 0.032843 -0.027437 -0.140523 0.205989 0.058697 0.087983 0.169126 -0.577977 0.133794 -0.157937 -0.000869 -0.096243
5996 -0.070651 0.072166 0.226730 0.178457 0.355072 -0.066139 -0.073289 -0.190246 0.358210 -0.028536 0.073293 -0.180881 -0.042667 0.058215 0.172198 -0.001711 0.241335 -0.342988 0.060456 0.048694 -0.252794 -0.070885 0.007712 -0.115230 -0.030638 -0.066506 -0.051599 -0.259478 0.209977 -0.009383 -0.014324 0.105713
4541 0.200983 0.198791 0.212132 0.045426 0.194421 0.027682 -0.015287 -0.029672 -0.009641 0.000890 0.175067 -0.118634 -0.039395 0.140170 0.179403 -0.240735 -0.172953 -0.352963 -0.063728 -0.098439 -0.268696 -0.123711 -0.126823 -0.004889 -0.075612 -0.113622 -0.222698 -0.369801 -0.094858 -0.105492 -0.085021 -0.091257
2684 -0.153498 0.569454 0.195285 0.218333 0.434589 -0.146767 -0.221409 -0.264352 0.357094 0.138455 -0.289259 0.109978 -0.253155 -0.107084 0.144263 0.045487 0.069596 -0.247829 0.189955 0.071407 -0.400899 0.011539 -0.048164 -0.056421 -0.299750 0.104096 -0.453189 -0.154291 0.025351 0.150821 0.027378 0.198199
2612 0.108847 -0.051292 0.394183 -0.062290 0.249286 -0.010411 0.006142 -0.137763 0.124565 0.048624 0.234998 -0.041867 -0.241137 -0.078448 0.422581 -0.155664 -0.086857 -0.036703 -0.133533 0.031140 -0.398907 0.130204 0.106350 0.263951 -0.195610 -0.294580 0.057722 -0.381753 -0.020572 -0.289303 -0.030100 -0.033532
5385 -0.123738 0.055987 0.241781 -0.014076 0.044788 -0.162818 -0.378297 -0.044384 0.286863 0.347952 0.142702 -0.160502 -0.006565 0.300497 0.095786 -0.054210 0.156100 -0.240777 -0.153161 0.102001 -0.033211 -0.021391 0.035032 0.072614 0.127263 0.034384 -0.110559 -0.226882 0.153689 -0.104138 0.176793 0.091129
3965 0.301635 0.158878 -0.120383 0.121001 0.145783 -0.003305 -0.116968 -0.279471 0.131162 0.083351 0.008415 0.082409 0.201178 0.053806 0.053849 -0.243172 -0.131614 -0.075573 -0.257286 0.043013 -0.396409 0.193125 0.027032 0.279546 0.105990 0.051173 -0.030838 -0.317928 0.211685 0.039676 0.096175 -0.141503
5333 0.349238 0.285573 -0.361894 -0.103711 0.272997 -0.407805 -0.106214 -0.234672 -0.188989 -0.069886 -0.180506 0.018818 -0.090599 -0.003962 0.295053 -0.223510 0.326395 -0.044491 -0.346838 -0.019813 -0.303392 0.064309 -0.198017 0.045854 -0.125858 -0.419705 -0.153252 -0.211808 0.077611 -0.214523 -0.057586 0.346270
3108 0.385176 0.033324 0.125371 -0.028504 0.193653 -0.012104 0.080831 -0.039197 0.193170 0.285152 0.164717 0.012754 -0.025599 -0.015715 0.154470 -0.249566 0.024489 -0.085733 -0.035612 -0.040104 -0.284125 0.112373 0.080775 0.344737 -0.042142 -0.138956 -0.167826 -0.354535 0.142508 -0.093435 0.088152 -0.222910
6451 0.057440 0.183589 0.093376 0.187770 0.040535 -0.203716 -0.355840 0.023610 0.128144 0.169547 0.061417 -0.161247 0.104164 -0.010727 0.178234 -0.314059 0.137820 -0.205556 -0.124127 -0.110407 -0.213206 -0.152321 -0.069657 -0.037221 0.001388 0.026337 -0.245642 -0.218146 0.304216 0.017631 -0.097710 0.029167
2412 -0.014924 0.296787 -0.108631 0.101397 0.134712 -0.148797 -0.082216 -0.204486 -0.092563 0.058007 0.213125 -0.151452 0.087155 0.259031 0.032931 -0.072463 0.163331 -0.237393 -0.292791 -0.029158 -0.151124 -0.060599 0.062814 -0.037356 -0.145434 -0.286593 -0.161895 -0.350500 0.294378 -0.062560 0.000640 0.136592
2480 0.358303 -0.159644 -0.231710 0.120566 0.573674 -0.266206 -0.120516 -0.066124 0.363672 0.024139 0.303608 -0.258206 0.012850 0.354712 0.250903 -0.085525 -0.020396 -0.310380 0.058353 -0.064768 0.076837 -0.308512 -0.057084 0.318903 -0.191191 0.393974 0.134997 0.045989 -0.036836 -0.096061 0.358303 0.087737
2903 0.071736 -0.131490 -0.108821 -0.162636 0.074688 -0.081865 -0.169236 -0.195232 0.458404 0.319642 -0.109916 -0.382120 0.162033 0.085372 0.145768 0.080453 0.118294 -0.198324 0.063428 0.212371 -0.157077 -0.053954 0.279658 -0.121353 0.096211 -0.168844 -0.180583 -0.385891 0.177041 -0.086551 0.270131 0.061547
2186 0.051070 0.050310 -0.059641 0.156418 0.293854 0.035896 -0.202376 -0.171644 0.016594 0.099862 0.298068 -0.163705 -0.093697 0.347406 0.023348 -0.081544 0.022917 -0.194678 -0.325932 0.031088 -0.024215 -0.066424 0.204595 0.112075 0.084442 -0.061962 -0.137282 -0.250773 0.166445 -0.104932 0.005230 0.014019
1173 0.151417 0.006096 0.023687 -0.080281 0.089939 -0.040125 -0.017710 -0.155498 0.126292 0.100637 0.039650 0.117505 -0.003612 0.011740 0.160074 -0.185268 0.032815 -0.399149 -0.023590 0.081071 -0.426272 0.114791 0.010254 -0.057328 -0.085693 0.168591 0.061037 -0.543832 0.223218 -0.120637 0.059564 -0.251296
2172 0.339699 0.009887 0.153608 0.057376 -0.042983 -0.125489 0.066730 -0.010790 0.207342 0.449915 -0.040999 -0.041519 -0.014737 -0.174598 0.193594 -0.167975 -0.078290 -0.232627 0.003342 0.298365 -0.385560 0.299474 0.229696 0.422198 -0.087001 0.030188 0.043439 -0.501576 0.173186 -0.062154 0.033186 -0.125611
1836 0.107653 0.326407 0.104410 -0.091992 0.084560 -0.337979 -0.327069 -0.265231 0.033081 0.057264 0.031374 -0.169261 -0.155253 -0.092893 0.266589 -0.155470 0.069612 -0.221854 -0.200669 -0.026635 0.010652 -0.151716 -0.084735 0.270570 -0.033416 0.064685 -0.070491 -0.215814 0.021945 -0.166622 -0.023760 -0.103779
4498 0.115791 0.081316 0.254303 0.069784 0.203144 -0.049088 -0.227116 -0.192046 0.097225 0.115332 0.087218 -0.123963 0.125159 -0.064090 0.218947 -0.001789 0.126666 -0.381418 -0.063811 -0.024702 -0.223689 0.094367 0.126503 0.152485 -0.133828 0.085718 -0.039101 -0.204561 0.215238 -0.118368 -0.065667 -0.124484
1009 0.072366 0.083998 -0.118231 -0.057942 0.040826 -0.095029 0.048415 0.162502 0.274024 -0.095506 -0.027963 -0.122510 -0.023130 0.494220 0.146507 -0.185329 0.036566 -0.264121 0.048563 -0.122837 -0.326699 -0.005001 -0.007991 0.035051 -0.074581 0.064321 -0.045765 -0.584867 0.286397 0.102250 0.255463 0.149079
4415 0.269552 -0.092014 0.032282 -0.091503 0.150159 -0.247022 -0.109649 0.010339 0.278709 0.292101 0.235250 0.080327 0.182567 0.043449 0.265425 -0.200779 0.170196 -0.064338 -0.173980 0.077782 -0.376924 -0.008573 0.121743 0.238049 -0.186374 0.108208 -0.074745 -0.259550 0.006361 -0.118645 0.220730 -0.223130
6330 0.056490 0.033996 0.163685 0.153596 0.413386 -0.231130 -0.279963 -0.149940 -0.026931 -0.107764 -0.377677 -0.271555 -0.208949 0.004142 0.310756 -0.073180 -0.145624 -0.004553 -0.046081 -0.028001 -0.314889 0.365193 -0.334675 0.074864 0.017411 -0.208164 -0.039626 -0.401625 0.077593 -0.172977 0.279090 0.253628
2308 0.365225 -0.099271 0.072263 0.213369 0.100481 0.120210 -0.092517 -0.365776 0.048651 0.195939 0.068629 0.053963 0.013331 0.002760 0.154082 -0.185689 0.142279 -0.197486 -0.174947 0.116492 -0.254153 0.126690 0.017120 0.223895 0.036479 0.100025 0.032247 -0.409051 0.285259 -0.023994 0.015946 -0.173938
4781 0.087412 0.220573 0.201033 0.126352 0.164786 -0.067906 -0.016090 -0.104876 -0.039892 0.113066 0.113502 -0.050506 -0.132477 0.162184 0.174759 -0.256740 -0.105779 -0.309189 0.033951 0.079315 -0.194147 -0.224262 -0.015107 0.030627 0.035138 -0.267905 -0.169187 -0.393479 0.070065 -0.006457 -0.100835 -0.147041
6070 0.028219 0.046358 -0.058560 -0.085921 0.200297 -0.071190 -0.129613 -0.085375 0.174202 0.127870 0.099773 -0.128949 -0.030748 0.592618 0.145320 0.083424 -0.004311 -0.197356 -0.242246 0.008517 -0.212908 -0.023395 0.052481 0.006723 0.243405 0.082254 -0.092215 -0.276908 0.011684 0.119019 0.361918 0.068472
3980 0.272396 0.287160 0.011864 0.023409 0.320466 -0.109374 -0.039599 -0.230748 0.000160 0.126659 0.124134 0.109647 -0.090807 0.147003 0.314415 -0.190223 -0.087125 -0.298604 -0.060259 0.013729 -0.237290 -0.052025 0.034205 -0.141721 0.195025 -0.048577 -0.238792 -0.074322 -0.117718 -0.091371 0.013968 -0.043624
2806 -0.067415 0.146174 0.055623 -0.193401 0.118594 0.041142 -0.240025 -0.158342 0.503424 0.119334 0.094738 -0.422377 -0.063769 0.144276 -0.008111 0.047236 0.138275 -0.019291 -0.092093 0.255709 0.013437 -0.164599 -0.033574 0.184110 0.190678 -0.121430 0.067594 -0.595517 0.031573 -0.161875 0.044166 0.143584
2257 -0.089110 0.023167 0.031366 -0.146876 0.103265 -0.206356 -0.289088 -0.065868 0.203272 -0.011577 0.196445 0.026795 0.103187 0.111618 0.191753 -0.103961 0.040814 -0.534321 -0.261684 -0.083109 -0.294699 0.092232 0.106997 0.246463 0.049746 -0.079133 -0.133016 -0.080978 0.052129 -0.097770 0.173228 0.036047
2211 0.248993 0.352887 -0.006379 -0.095665 0.165446 -0.315579 -0.134459 -0.095592 0.095665 -0.059380 0.128271 0.057530 -0.057918 -0.030886 0.139875 -0.279275 -0.111300 -0.138118 -0.275532 0.023003 -0.397546 -0.279049 -0.062949 0.218073 0.058680 -0.210117 -0.069722 -0.089924 0.182455 -0.092759 -0.208501 0.070932
2047 0.170244 0.074284 -0.048331 0.151336 0.092959 -0.088637 -0.151120 0.086594 0.355203 -0.013759 -0.012996 -0.215143 0.273974 0.177896 -0.000581 0.064635 0.209476 -0.212116 -0.086106 -0.156930 -0.443168 0.093522 0.156948 0.019106 -0.007580 -0.161355 -0.055401 -0.470922 0.173172 -0.030141 0.126257 0.006075
2543 0.089032 0.034124 -0.026484 0.024247 0.114502 -0.173075 -0.348918 -0.069977 0.293008 0.341665 0.094653 -0.450280 0.125646 0.261990 0.132513 0.031555 0.178247 0.003855 -0.096681 0.002236 0.041435 -0.284554 0.023472 0.066811 -0.022467 -0.100164 -0.250452 -0.209995 0.302306 -0.123291 0.026692 0.075488
2031 0.101774 -0.125719 0.085917 0.154898 0.518399 -0.252260 -0.325825 -0.167683 -0.037627 -0.084166 -0.400682 -0.177414 -0.294737 -0.027513 0.307441 -0.094224 -0.198866 0.053516 -0.145601 0.115899 -0.236538 0.275077 -0.302360 0.107080 -0.010040 -0.059570 0.087586 -0.455883 0.127596 -0.104559 0.430155 0.206817
6037 0.478538 0.319420 0.109949 0.155782 0.185782 0.121498 -0.111348 -0.169340 -0.010673 -0.040798 -0.001798 0.096993 0.128580 0.060038 0.332481 -0.294442 -0.167610 -0.196406 -0.131316 0.022910 -0.388390 0.104108 -0.051671 0.122386 0.182447 0.019965 -0.097567 -0.013449 0.279961 -0.091900 -0.097841 -0.069810
4985 0.244852 0.157760 0.156818 -0.035440 0.091650 -0.222092 -0.464928 -0.143187 -0.148736 0.151407 0.218712 -0.154039 0.094670 0.066797 0.385659 -0.086427 -0.031483 -0.488938 0.161324 -0.054516 -0.018756 -0.220218 0.040699 0.059563 0.004055 0.123036 -0.071653 -0.121048 -0.040259 -0.091206 0.108140 -0.069189
748 0.255263 0.367414 0.075326 -0.003348 0.278510 -0.126937 -0.104237 -0.281382 0.017132 0.071319 0.119688 0.075103 0.027492 -0.035828 0.209797 -0.137807 -0.168563 -0.177765 -0.049487 0.042352 -0.363875 -0.131970 0.060521 -0.093461 0.061265 -0.221355 -0.327817 -0.202792 -0.057811 0.119643 -0.103273 -0.001129
1818 0.187409 0.112936 0.180855 0.167694 0.134766 0.052777 -0.242026 -0.207025 -0.005781 0.122647 0.056253 0.018347 0.055113 0.119761 0.338708 -0.202908 -0.077066 -0.236826 0.016347 0.018203 -0.414459 -0.204737 0.036931 0.091267 -0.038958 -0.073664 0.062959 -0.131689 0.085523 -0.221977 -0.017838 -0.045749
3525 0.198772 0.041906 0.165081 -0.073186 0.081523 -0.034640 0.019458 -0.226662 0.011414 0.259521 0.078982 0.075172 0.004531 0.021424 0.232753 -0.266921 0.189636 -0.224138 0.008383 0.180639 -0.270807 0.115473 -0.051942 0.203128 0.079118 -0.032935 -0.025953 -0.483701 0.167248 -0.080721 -0.007710 -0.331851
4788 0.184012 -0.177834 0.180803 0.123406 0.086175 0.237227 -0.294223 -0.428890 0.016220 0.096825 -0.050545 -0.005706 -0.065187 0.098395 0.395546 -0.317353 0.229791 -0.134990 -0.035085 -0.136969 -0.278577 -0.149081 0.145707 0.319899 0.099120 -0.149844 0.119927 -0.227199 -0.022103 -0.108834 0.326082 0.035399
4828 0.058779 0.120661 -0.057492 -0.147546 0.225544 0.052743 -0.349114 -0.200288 0.125171 0.084106 0.080085 -0.223667 -0.131365 0.246782 0.338447 0.115739 -0.167265 -0.207048 0.012449 -0.186831 0.094424 -0.088869 0.310862 -0.037722 -0.007853 0.093659 -0.092320 -0.324787 0.311291 -0.205171 -0.043746 -0.102419
5581 0.233671 0.255525 0.265072 0.124986 0.191301 0.024721 -0.316323 -0.076963 -0.018043 0.137627 0.100194 -0.065114 0.041564 0.217708 0.280296 -0.180064 -0.072462 -0.211129 -0.016470 -0.053407 -0.148302 -0.329069 -0.064046 -0.180559 0.138439 0.061041 -0.162558 -0.175123 0.097133 -0.061645 -0.174720 -0.019559
214 0.329206 0.071752 0.156363 0.027810 0.172008 0.055797 -0.094451 -0.242131 0.251922 -0.033603 0.033724 0.032278 -0.138838 -0.069736 0.182291 -0.259350 -0.095812 -0.048968 -0.256697 -0.074383 -0.067409 -0.007771 0.044460 0.235293 0.255985 -0.101925 0.050797 -0.569064 0.028845 0.004834 -0.055298 -0.032479
1826 0.133359 0.053354 -0.163957 0.158703 0.214307 0.120455 -0.062779 -0.129300 0.046957 0.122125 0.210077 -0.183264 0.202578 -0.086025 0.253560 -0.406267 -0.244105 -0.294430 -0.093458 0.040758 -0.271351 -0.123981 0.044614 0.377412 0.062235 -0.174272 0.141613 -0.393328 0.079575 0.338553 -0.070097 0.025354
3773 0.086904 -0.004995 0.114605 0.017372 0.277714 -0.170800 -0.074869 -0.240576 0.403482 0.079761 0.018418 -0.155038 -0.161319 0.117844 0.255715 0.024405 0.203752 -0.328505 -0.035858 -0.021824 -0.082934 -0.187123 0.079141 -0.087691 0.399116 -0.048495 -0.126246 -0.194798 -0.030946 -0.156823 -0.073303 0.210920
497 0.161680 0.143714 0.070801 0.097905 0.272661 -0.076929 -0.124333 -0.135941 0.309001 0.061987 0.089853 0.107832 -0.107172 -0.055531 0.243994 -0.330426 -0.053148 -0.194736 -0.073757 -0.089068 -0.318802 -0.149120 0.092156 0.018702 0.007710 0.059384 -0.048065 -0.336921 -0.176015 0.153694 -0.022253 0.239861
1328 0.213305 -0.034113 0.186257 0.085402 0.184757 -0.070462 -0.092259 -0.232213 0.279133 -0.273497 0.121664 0.006718 -0.086983 0.242952 0.169064 -0.232491 0.098594 -0.141299 -0.216040 -0.048174 -0.093566 -0.196990 -0.030155 0.378274 -0.189939 0.062775 -0.240077 -0.352375 0.047823 -0.032725 0.104936 -0.211971
3361 0.037194 0.212057 0.073029 -0.051616 0.183853 -0.061347 -0.137697 -0.161322 0.086718 -0.142648 0.096494 -0.031775 -0.084406 0.271150 0.116018 -0.313987 0.098205 -0.086432 -0.008804 0.042973 -0.283529 -0.110476 0.063236 0.243935 -0.010908 -0.233235 0.092867 -0.311253 0.226921 -0.105737 0.185626 -0.026717
6264 0.144054 -0.126459 0.331681 0.179492 0.298591 0.016297 -0.306076 -0.233532 0.110577 -0.100747 0.077761 -0.103493 0.108420 0.146542 0.309748 0.018565 -0.336730 -0.180542 -0.335725 -0.055543 -0.008388 -0.138142 -0.232733 0.356601 -0.348210 -0.345057 -0.098886 -0.304016 0.076959 -0.124183 0.090057 -0.275524
4024 0.223963 -0.019138 0.019597 0.146197 0.078900 -0.209438 -0.016914 -0.037087 0.362771 0.034201 0.070256 -0.164977 0.206993 -0.045258 0.167132 -0.131699 0.037792 -0.294053 -0.213777 -0.054473 0.041531 0.040954 0.083346 -0.161425 0.225687 -0.198807 -0.206296 -0.554389 0.240926 -0.000731 0.193684 -0.086259
1596 0.292228 0.122322 0.131181 0.083529 0.211442 -0.058113 0.056861 -0.141655 0.224996 0.155698 0.105809 -0.178136 0.159477 -0.092127 0.085562 -0.554727 -0.015440 -0.090547 0.196963 0.057771 -0.327871 -0.167616 -0.063008 0.052422 -0.041280 -0.213329 -0.053979 -0.375151 -0.143352 -0.278815 0.240679 -0.238771
1377 0.061576 -0.062948 0.078870 0.174646 0.092111 -0.206946 -0.167332 -0.041289 0.035464 0.084929 -0.064992 -0.295611 0.130147 0.153460 0.127947 -0.123316 -0.092087 -0.320464 -0.118387 0.008784 -0.120756 0.313606 0.208587 -0.019165 0.066726 0.046616 -0.117361 -0.523694 0.333007 0.140618 0.121327 -0.049065
5112 0.125141 0.168564 0.045869 0.066831 0.147595 -0.416988 0.013817 0.173271 0.401807 0.192720 0.022266 0.061240 -0.039989 -0.118510 0.046760 -0.089172 0.083847 -0.364491 -0.280205 0.219236 -0.384396 0.257845 0.177058 0.054129 -0.293913 -0.094619 -0.255175 -0.308593 0.026961 -0.178528 0.097882 -0.066406
797 0.193532 0.128872 0.123930 0.016978 0.177333 -0.001100 -0.122739 -0.066727 0.264747 0.024459 0.095107 -0.117242 -0.102341 0.114029 0.196194 -0.195131 0.022321 -0.201361 -0.132163 -0.023777 -0.099355 -0.237613 0.087760 -0.157587 0.176624 -0.019492 -0.305421 -0.220085 0.198001 -0.066410 0.019310 0.232189
465 0.267697 0.072221 0.027836 0.081262 0.125883 -0.383118 -0.276571 -0.156181 -0.024213 0.097603 0.267315 -0.067110 0.017975 0.143762 0.340492 -0.312677 -0.059783 -0.234432 0.171916 -0.146337 0.102306 -0.109888 0.091637 0.165222 -0.011401 0.114241 -0.025673 -0.374071 0.167424 0.105027 -0.013858 -0.037141
3851 0.006843 -0.197579 -0.071657 -0.042116 0.336690 -0.038260 -0.239846 0.041372 0.510038 0.267715 0.171567 -0.156106 -0.048490 0.142164 0.245471 -0.063901 0.161135 -0.048804 -0.175701 0.102362 -0.123763 -0.162353 0.147182 -0.015631 0.077464 -0.115652 -0.185955 -0.216990 0.167909 0.067361 0.255987 0.100996
5648 0.032705 0.100782 -0.099230 -0.114199 0.187392 0.000744 -0.461283 -0.046227 0.027217 -0.001476 0.329366 -0.247827 0.008303 0.332817 0.231262 -0.053924 -0.143735 -0.410639 0.085666 -0.269536 -0.096707 0.065942 0.107871 0.036377 -0.044435 0.278788 0.043326 -0.221707 0.249901 -0.228382 -0.071237 -0.101487
5389 0.110986 0.126095 0.024406 -0.137624 0.183432 0.224989 -0.148474 -0.056840 0.014920 0.128275 0.080070 -0.224349 0.033472 0.266317 0.224336 -0.132452 -0.002137 -0.336472 -0.016383 -0.158860 -0.006485 0.208002 0.162454 -0.057471 0.109052 0.030282 0.040759 -0.398921 0.404167 -0.211929 -0.090027 0.021509
4036 0.219047 -0.001397 -0.191538 0.023694 0.033436 0.283131 -0.048664 -0.027163 0.174375 0.009843 0.130134 -0.103474 -0.014017 0.320383 0.161363 -0.220451 0.065560 -0.301363 -0.028613 0.302608 -0.354081 0.219052 -0.074914 0.208358 0.031347 -0.007997 0.043308 -0.402851 0.436167 -0.038071 0.017010 -0.019390
3693 0.002299 0.275002 -0.272765 -0.270625 0.461050 -0.202355 -0.357274 -0.219739 0.040473 -0.140715 -0.388368 -0.130500 -0.272762 -0.132326 0.297851 0.018753 0.249138 -0.166837 -0.120047 -0.034897 -0.006552 0.163973 -0.261944 0.261001 -0.061396 -0.168124 -0.105620 -0.423287 0.083737 -0.109673 0.206429 0.303101
1570 0.255619 0.162844 0.038505 0.020983 0.189797 -0.002269 -0.126770 -0.027794 0.020062 -0.035659 0.128649 -0.101685 -0.052107 0.410361 0.308756 -0.104329 -0.125132 -0.243131 0.021088 -0.005855 0.027632 -0.096281 0.319157 0.049266 0.211408 0.038937 -0.122435 -0.218960 0.315336 -0.192491 0.054377 0.076980
3910 0.158268 -0.154000 0.095144 0.106624 0.045745 0.072198 -0.057426 -0.327211 -0.033113 0.226059 0.049765 -0.141770 0.116354 0.230238 0.144846 0.034695 0.040186 -0.443294 -0.075326 0.011350 -0.192853 0.024722 0.133802 0.064965 -0.030736 -0.203882 0.024445 -0.490451 0.136172 -0.044907 0.071343 0.142040
1191 0.161534 0.068320 0.247918 -0.004399 0.223034 -0.105381 -0.254747 0.015970 0.013561 0.205791 0.062671 -0.027833 -0.036593 0.035676 0.205621 -0.258196 -0.156768 -0.318893 -0.184691 0.004564 -0.154181 -0.206440 0.000477 -0.048258 -0.004650 0.001936 -0.024124 -0.290016 -0.018293 -0.096429 -0.095306 0.004029
682 0.115118 0.202097 0.003527 0.187214 0.025011 -0.267745 -0.450430 0.101733 0.066554 0.204658 0.024475 -0.236107 0.260944 -0.081785 0.332038 -0.295409 0.100128 -0.154498 -0.178947 -0.125058 -0.169816 -0.270399 -0.169206 0.037647 0.025500 0.112443 -0.232831 -0.176690 0.225403 -0.043305 -0.109804 0.025322
1500 0.112536 0.350994 -0.052054 0.015556 0.196475 -0.396460 -0.012782 -0.195147 0.068452 -0.051133 0.197748 -0.079356 -0.105628 0.227204 -0.099320 0.074285 0.142858 -0.088997 -0.285671 0.095295 -0.077642 -0.165648 0.198714 0.136574 -0.045890 -0.429282 -0.173761 -0.389384 0.290845 -0.067104 0.007853 0.245396
1647 -0.109706 0.047833 0.221082 -0.077205 0.139886 0.004708 -0.063650 -0.000106 -0.026653 0.049058 0.252091 -0.264277 -0.162566 0.074409 0.571222 -0.113856 -0.181529 -0.043070 0.072500 -0.165698 -0.552016 0.258874 0.195313 0.177133 -0.057979 -0.191812 0.184656 -0.482477 0.023583 -0.099356 0.201802 -0.052103
5283 0.199633 0.204397 -0.122964 -0.054294 0.078663 -0.241578 -0.138569 -0.181861 0.222393 -0.061839 0.258836 -0.032982 -0.043007 0.214511 0.075823 0.026879 0.103894 -0.113845 -0.327079 0.184210 0.059251 -0.027672 0.292457 0.209972 -0.050722 -0.505127 -0.275097 -0.329147 0.286307 0.005737 0.151798 0.123028
3637 0.073985 0.288164 -0.203669 -0.105004 0.168078 -0.324183 -0.194935 -0.228498 -0.055842 -0.123090 0.204725 -0.034138 0.030639 0.294365 0.032693 -0.036531 0.170634 -0.210455 -0.294252 0.108946 -0.163162 0.017666 0.111522 0.143335 -0.083467 -0.357474 -0.164565 -0.206314 0.291970 -0.138249 0.080750 0.006908
185 0.002731 0.090101 -0.007467 0.039328 0.089192 -0.221667 -0.109301 0.076669 0.147449 0.097507 0.029288 -0.142706 -0.115004 0.224686 0.263309 -0.125326 0.141372 -0.268094 -0.130736 0.057509 0.009347 -0.001533 0.046332 0.094480 0.056308 -0.035728 -0.087373 -0.476505 0.253083 -0.058891 0.078061 0.175948
1756 -0.267308 0.511979 0.172025 0.068740 0.552168 -0.063744 -0.242385 -0.459242 0.215237 0.182499 -0.330067 0.060262 -0.074392 -0.027000 0.266734 0.158197 0.140454 -0.162828 0.051493 0.016943 -0.398718 -0.154044 -0.032200 0.167332 -0.406774 0.082928 -0.302489 0.013665 0.069568 0.111342 -0.077540 0.134530
4422 0.058386 0.258362 0.102565 0.121970 0.341523 -0.074884 -0.087621 -0.243134 0.042544 0.006890 0.061756 -0.005583 0.001667 0.130306 0.313612 -0.227908 0.021731 -0.231257 0.021934 0.033881 -0.284020 -0.172688 0.039830 -0.022170 0.163637 -0.264258 -0.105397 -0.140450 -0.004621 -0.013414 -0.079788 -0.115410
6215 0.084055 0.039128 -0.059032 -0.150628 0.229373 -0.020873 0.122035 -0.220441 0.302511 -0.066385 0.143356 -0.091363 -0.034534 0.451831 0.262356 -0.063036 -0.099424 -0.265791 -0.163543 0.058141 -0.136967 -0.173553 0.182686 -0.006242 0.099368 -0.004466 -0.111165 -0.271286 0.057349 -0.043317 0.139213 0.223193
3785 -0.033301 0.135439 0.082220 -0.077549 0.160511 -0.186839 -0.227245 -0.129373 -0.029074 0.322761 0.081384 -0.236237 0.218157 0.340621 -0.014895 -0.151084 0.135372 0.110261 -0.347855 -0.149893 -0.081722 -0.328353 -0.024594 0.094640 0.042484 -0.028534 -0.148529 -0.291643 0.350054 -0.236881 0.079034 0.124250
1665 -0.073608 0.302217 -0.009569 -0.107091 0.063955 -0.119495 -0.332608 -0.221381 0.097445 -0.216917 0.194852 -0.068112 0.095773 -0.114830 0.071248 -0.262085 -0.061518 -0.512200 -0.254709 -0.142301 -0.249798 0.023716 0.169254 0.262302 -0.103064 -0.133493 -0.034899 -0.198683 0.051592 -0.061487 0.108743 0.127158
5713 0.345883 0.149819 0.214113 0.108993 0.233816 0.083014 -0.160122 -0.186766 0.202177 0.061985 0.147536 0.074584 0.021557 0.104305 0.214172 -0.243137 0.112666 0.169532 -0.062024 -0.085400 -0.085152 0.121315 0.068302 0.418241 0.192717 0.048511 -0.046799 -0.453436 0.044960 -0.071065 0.182751 -0.043399
6424 0.224445 0.133886 0.126723 0.034580 0.348235 -0.253881 0.183497 -0.283498 0.181011 -0.019738 -0.040479 -0.400625 -0.146477 0.257207 0.611535 0.290188 -0.016189 -0.187056 -0.107873 0.220678 -0.064933 -0.158631 0.014293 -0.158006 0.134142 0.044391 -0.199450 -0.196305 -0.177222 -0.177665 -0.072137 0.059669
6456 -0.105397 0.175241 0.053116 -0.109088 0.236949 -0.101482 -0.303359 -0.191733 0.252445 0.118258 0.132924 -0.191077 0.003873 0.415453 0.157289 0.071659 -0.031793 -0.307874 -0.204081 0.066065 -0.079731 0.085845 0.184371 -0.024966 0.163596 -0.156488 -0.195255 -0.029542 0.019389 0.045386 0.228702 0.044037
2427 0.262754 0.115705 0.026525 -0.128951 0.150303 -0.070898 0.070911 -0.294783 0.152798 0.198717 0.086846 -0.036579 -0.115871 -0.310010 0.188411 0.003947 -0.126072 -0.392784 -0.552403 -0.183737 -0.269960 -0.087216 -0.033587 0.323806 -0.131088 0.086415 -0.102256 -0.247859 -0.000517 -0.053812 -0.090239 0.405279
4335 0.258403 0.271739 -0.071664 0.033929 0.307592 0.251592 -0.133894 -0.161203 -0.030818 0.187324 0.134410 -0.148500 0.162654 0.248060 0.228837 -0.163433 -0.154677 -0.022533 -0.016265 0.058677 -0.168101 0.153726 0.207686 -0.084611 0.153253 0.018142 -0.045064 -0.231681 0.409987 0.013394 0.135335 0.075717
950 0.310060 -0.097623 -0.127187 -0.038463 0.185685 -0.000578 -0.033002 -0.118834 0.008240 -0.090389 0.065623 0.108398 0.015114 0.333721 0.050224 -0.276759 0.048481 -0.415339 -0.000728 0.136761 -0.412864 -0.051186 -0.126285 0.361620 -0.022277 0.213448 0.092520 -0.270979 0.435633 -0.001650 0.209759 -0.180287
774 0.114061 0.080340 0.349705 -0.055004 0.106730 -0.311790 -0.205956 -0.112355 0.194026 0.449293 0.119062 -0.080090 0.007547 0.142117 0.135258 -0.083770 0.011616 -0.089528 -0.180136 -0.184045 -0.303822 -0.187661 -0.052598 0.059335 -0.141695 0.067378 -0.179100 -0.127327 0.020409 -0.295482 -0.128740 0.137482
2116 -0.061429 0.272625 -0.016577 0.064812 0.481520 -0.221521 -0.172006 -0.250001 0.229667 -0.108143 -0.146429 0.032932 -0.058424 0.048690 0.452429 0.086386 0.065389 -0.274205 0.019148 -0.148325 -0.344052 0.208958 -0.209796 0.162197 -0.266826 0.081774 -0.247529 -0.122604 0.049861 0.220858 0.095776 0.217942
4510 0.063432 0.110527 0.277422 0.081910 0.136430 -0.326314 -0.118321 -0.166564 0.232539 0.247871 0.005105 0.130813 -0.151315 -0.064225 0.178697 -0.255219 0.124189 -0.330361 0.097145 0.021539 -0.437474 -0.047783 0.076179 0.076263 0.037691 0.058379 -0.122494 -0.151942 -0.015547 -0.203099 0.064694 -0.096922
2675 0.378914 0.055587 0.087452 -0.060265 0.174303 0.061775 -0.048341 -0.019879 0.054207 0.405695 0.076024 0.099820 0.124143 -0.046608 0.190268 -0.281338 0.145749 -0.143646 -0.153884 -0.035715 -0.245164 0.110706 0.105074 0.370432 0.100062 -0.035165 -0.270469 -0.222619 0.195858 -0.064612 0.108214 -0.269918
4147 0.242873 0.063578 0.066431 -0.065880 0.293413 0.068874 -0.178157 -0.328244 0.217886 0.046998 0.263510 -0.202229 0.205847 -0.175819 0.146454 -0.409839 0.104680 0.103537 0.105877 -0.050158 -0.246442 -0.056892 -0.088253 0.231672 0.215440 0.025224 -0.127470 -0.397635 0.044085 0.185323 0.159312 0.019503
5467 0.115692 0.360260 0.132104 -0.080298 0.219919 -0.147238 -0.000850 -0.142878 -0.001877 -0.050535 0.149086 -0.032140 -0.007756 0.013851 0.225864 -0.253387 0.030866 -0.380212 -0.142043 0.104425 -0.356557 -0.197236 -0.162836 0.139228 0.136429 -0.118324 -0.123316 -0.182248 -0.093551 0.011985 -0.229647 0.005095
5254 0.295215 0.237433 0.313764 0.108781 0.233331 0.035265 -0.257544 -0.105900 -0.024701 0.172728 0.061422 -0.024894 -0.124822 0.136464 0.321395 -0.144975 -0.079826 -0.127437 -0.126912 0.008216 -0.237356 -0.260061 -0.015420 -0.235772 0.041127 0.091976 -0.101812 -0.178470 0.089595 -0.155835 -0.326356 0.029038
5642 0.227120 -0.010219 0.136643 0.281216 0.109689 0.195071 -0.184058 -0.336532 0.139150 -0.170675 0.252954 -0.044055 -0.080496 0.176205 0.391209 -0.277875 -0.024034 0.013359 -0.200467 -0.047847 -0.251903 -0.030412 -0.079632 0.414395 0.143553 -0.192034 0.086605 -0.252281 0.236936 -0.148949 -0.122832 -0.156000
4845 0.233565 -0.116346 0.009419 0.043677 0.111524 -0.254252 -0.076667 -0.183223 0.495214 0.202878 0.021641 -0.156047 0.094196 0.054538 -0.033380 0.028289 0.187382 -0.328042 -0.109583 0.123818 0.125214 0.105321 0.374778 -0.070922 0.016891 -0.088976 -0.262540 -0.550610 0.071947 -0.058328 0.205158 -0.079278
320 -0.064485 0.156631 0.022138 -0.216130 0.242232 -0.344752 -0.287559 -0.140167 0.223435 0.340367 0.104755 0.116969 -0.079856 0.113218 0.113674 -0.405493 -0.075592 -0.147988 -0.176190 -0.131448 -0.144778 -0.070795 0.022277 0.201785 -0.046389 -0.138354 -0.092994 -0.067334 -0.010492 -0.186592 0.120341 0.095662
3113 -0.076313 0.176684 0.066176 -0.110684 0.211642 0.109097 -0.006777 -0.101153 0.101840 -0.025468 0.011614 -0.037272 -0.072752 0.446281 0.200941 -0.115942 -0.132173 -0.405438 -0.063475 -0.137824 -0.533775 0.045744 -0.023170 0.065176 0.118305 0.228265 -0.039708 -0.160374 0.082844 -0.148185 0.123986 -0.013113
1273 0.043315 0.072801 0.086669 -0.224532 0.442288 0.052072 -0.291812 -0.168350 0.083007 0.278716 0.161183 -0.067923 -0.015132 0.177761 0.236600 0.055112 0.053097 -0.163369 -0.002545 0.128457 -0.087024 -0.058474 0.262208 0.071835 0.265046 0.027459 -0.249710 -0.117309 0.063139 0.002283 0.105487 0.154469
2504 0.247577 -0.046855 0.082202 0.038655 0.135964 -0.084208 -0.100193 -0.219753 0.239921 0.090298 -0.000102 0.118163 0.213095 -0.139607 0.141866 -0.327271 0.051387 -0.259163 -0.330099 -0.326312 -0.179629 0.222231 0.114183 0.075270 -0.066374 0.143024 -0.363802 -0.409487 -0.052204 -0.265424 0.159575 -0.309199
3837 0.086504 0.001329 0.075292 0.232233 0.084572 -0.231058 -0.114797 -0.126022 0.183257 0.187547 -0.060210 -0.051271 0.011493 -0.211745 0.170721 -0.357995 0.049162 -0.247992 0.040866 0.135018 -0.217596 0.155644 0.101341 0.242306 0.026143 0.115152 -0.037695 -0.515797 0.380919 0.172455 0.064799 -0.159099
3835 0.041490 0.269414 0.160629 -0.052081 0.289374 -0.195019 -0.109514 -0.163578 0.164724 -0.014199 0.076058 0.140967 -0.139913 -0.025250 0.209869 -0.156600 0.163372 -0.324082 -0.092479 0.017628 -0.244273 -0.228649 -0.008821 -0.048885 0.028752 -0.300382 0.020896 -0.299872 -0.004217 -0.095243 -0.157626 -0.007393
1994 0.047863 -0.025066 -0.154057 -0.063882 0.092516 -0.395397 -0.016146 -0.135639 0.447023 0.186368 0.137196 -0.366359 -0.043918 0.373766 0.131495 -0.209701 -0.141134 -0.061804 -0.022402 0.211807 -0.011045 -0.263564 -0.003143 0.071878 -0.040363 -0.300999 -0.252015 -0.178832 0.285803 -0.224858 0.095038 0.235728
1933 -0.082567 0.074485 0.282709 0.087644 0.239217 -0.374814 -0.276127 -0.114412 0.006910 0.286368 0.106665 0.039786 0.017786 0.213068 0.142075 -0.249746 0.125137 -0.134625 -0.140140 -0.113080 -0.396189 -0.267060 -0.163286 0.010019 -0.060521 0.088663 -0.217778 -0.019951 0.200571 -0.164680 -0.017229 -0.005304
5744 -0.181593 0.545660 0.224399 0.288571 0.442406 -0.142024 -0.241305 -0.354129 0.324413 0.122842 -0.270030 0.090928 -0.292962 -0.247679 0.171007 0.177233 0.057128 -0.310739 0.182639 0.072202 -0.395338 0.068649 0.024573 -0.054316 -0.363962 0.111970 -0.416780 -0.204182 0.036345 0.167462 0.044821 0.200511
5356 0.248807 0.163858 -0.370249 -0.130488 0.317968 -0.331398 -0.218352 -0.367650 -0.121538 -0.220313 -0.272711 -0.057803 -0.171536 0.168654 0.150097 -0.092716 0.277232 -0.016324 -0.244209 -0.029678 -0.138477 0.156970 -0.022593 0.113979 -0.161266 -0.539884 -0.218936 -0.293823 0.243475 -0.222642 0.138382 0.344140
801 -0.101070 0.292072 -0.106521 -0.110419 0.329052 -0.198326 -0.278389 -0.240791 0.185778 0.085424 -0.046125 -0.168888 -0.021163 0.326465 0.096963 0.036756 0.143326 -0.133730 -0.112705 0.154888 -0.244092 0.086747 -0.249988 -0.027535 0.113043 -0.115803 -0.188617 -0.178945 -0.143826 -0.211430 0.279622 0.171596
3495 0.273527 0.022609 0.020191 -0.023790 0.046879 0.145031 -0.136413 -0.167871 0.144213 0.301849 0.069509 -0.117048 -0.049205 0.364816 0.049144 -0.077829 -0.047365 -0.192015 -0.094538 0.072289 0.006479 0.106053 0.177717 0.067108 0.151742 0.082768 -0.055099 -0.396783 0.453028 -0.211772 -0.008375 -0.071700
791 0.214421 0.109315 0.384356 0.095801 0.094053 -0.114317 -0.156059 -0.241678 0.423716 -0.097900 0.159205 -0.014334 -0.269235 0.181294 0.142928 -0.241723 0.163345 -0.119751 0.105719 -0.205732 -0.107107 -0.114423 0.143441 0.329015 -0.002549 0.004067 0.041219 -0.252766 0.104107 -0.051617 0.414890 -0.149684
2126 0.206685 0.076724 -0.377791 0.072137 0.344645 -0.039075 0.002027 -0.221020 -0.186985 0.205275 0.268019 -0.112724 0.044954 0.050719 0.066124 -0.304534 -0.058273 -0.052304 -0.141844 -0.032206 -0.408503 -0.043211 -0.102741 0.427492 0.241187 -0.108486 0.103643 -0.389337 0.164666 0.144914 0.041024 -0.098499
3596 0.372690 0.067075 0.094499 -0.046647 0.165226 -0.177379 -0.393076 -0.252201 0.105968 0.080170 0.255507 -0.292580 -0.159256 0.066374 0.356878 -0.228120 -0.211390 -0.211342 0.321735 -0.185257 0.169816 -0.085022 -0.008174 0.093651 0.056698 0.125520 -0.188957 -0.206102 0.139922 -0.198914 -0.117813 -0.208947
4855 0.302145 0.011334 0.105858 0.031975 0.083044 0.023428 -0.168772 -0.185157 0.253960 -0.176679 0.143776 0.088697 0.080560 0.090117 0.153672 -0.285584 -0.008382 -0.168157 -0.151955 0.150414 -0.262179 0.127441 -0.030583 0.389929 -0.015684 -0.074981 -0.059078 -0.338519 0.285361 -0.066873 -0.022979 -0.277567
5589 0.167227 0.295629 0.048614 -0.304997 0.214168 -0.352757 -0.312096 -0.360958 -0.081788 -0.058714 -0.118548 -0.038551 -0.054200 -0.023192 0.149818 -0.271602 0.176306 -0.224035 -0.029044 0.136139 0.070018 -0.004747 0.050221 0.165922 0.079079 -0.040295 0.032699 -0.313177 0.046690 -0.263910 0.123233 0.008512
3033 -0.151063 0.079350 0.135363 -0.013531 0.188109 -0.150922 -0.332097 -0.188230 0.326447 0.227452 0.121493 -0.205772 -0.098891 0.286960 -0.049626 0.030269 0.089911 -0.311823 -0.223972 0.102656 -0.104137 0.089483 0.094383 -0.073192 0.084062 -0.112815 -0.202680 -0.183017 0.146590 0.130631 0.093168 0.098328
2008 0.000179 0.120342 -0.114569 -0.064780 0.148795 -0.087999 -0.248177 -0.274470 0.258412 0.292922 0.151212 -0.091600 0.062239 0.411803 0.040018 -0.121102 0.058043 -0.309402 -0.137402 0.110422 -0.143477 0.106751 0.123881 0.056133 0.226734 -0.183165 -0.187099 -0.092772 0.011163 0.211868 0.090173 0.197844
1219 0.074610 -0.028357 0.009916 0.110713 0.063552 0.002493 -0.235709 0.024460 0.262900 -0.147228 -0.126175 0.135306 0.215965 0.085240 0.099255 -0.286479 0.011974 -0.471966 -0.028974 -0.082046 -0.526734 0.289221 0.064253 0.203064 0.045870 0.337148 0.114696 -0.387588 0.344016 -0.077378 0.346563 -0.085633
4642 0.025328 -0.125044 0.189442 -0.366684 0.023570 -0.098415 -0.287181 -0.042462 0.076973 -0.019360 0.125515 -0.169566 0.066678 0.248904 0.249058 -0.029102 0.171817 -0.170352 -0.208239 0.075667 -0.209815 -0.340571 0.189835 0.203934 0.134559 0.091151 -0.164749 -0.332928 0.132008 -0.085245 0.213168 0.155031
856 0.240407 0.357157 0.028599 -0.105183 0.177448 -0.217201 -0.363023 -0.278443 0.046301 0.087983 0.261587 -0.238080 -0.387900 0.107619 0.359748 -0.074340 -0.239604 -0.145015 0.345996 -0.115908 0.155295 -0.020642 0.098616 0.204068 -0.207468 0.168328 -0.078471 -0.351965 0.130475 0.004661 -0.099351 -0.147937
129 0.090452 0.213604 0.195976 0.138131 0.273447 -0.169026 0.000721 -0.151480 0.086981 0.000127 -0.107398 0.021287 -0.124069 0.210493 0.452870 -0.244437 -0.039378 -0.294437 0.105801 -0.237154 -0.109817 -0.287264 -0.065597 0.093555 0.300866 -0.011019 -0.127354 -0.307029 -0.173920 -0.083395 -0.073948 -0.076047
2673 0.136253 0.219277 -0.000388 -0.060729 0.162664 -0.066152 -0.063054 -0.367069 0.169993 0.029843 0.135108 0.134635 -0.076702 0.061056 0.270655 -0.411904 0.016484 -0.407013 0.154078 0.038991 -0.320770 -0.193240 0.112875 -0.004720 0.019451 -0.059815 -0.113039 -0.156580 -0.076208 0.094415 0.013965 -0.150825
2983 0.165986 0.105821 0.005787 0.094680 0.217437 -0.038161 -0.028639 -0.277122 0.354554 0.147286 0.022594 0.021492 0.114153 0.048637 0.275888 -0.165207 -0.009452 -0.099172 -0.161578 0.160381 -0.201332 -0.244692 0.095008 -0.143675 0.205377 0.001352 -0.229655 -0.216055 0.280082 0.128631 -0.076750 0.348167
5563 -0.146484 0.017395 0.260653 -0.203264 0.269677 -0.218301 -0.191710 -0.039704 0.146294 0.085479 0.106179 -0.209133 0.139061 0.056807 0.216054 -0.134120 0.207244 -0.131039 -0.161803 0.003247 -0.267926 0.102802 -0.259748 0.155412 -0.117624 -0.051722 -0.049205 -0.355364 0.040441 -0.247650 0.203039 -0.018546
1435 0.240902 -0.034427 -0.139209 0.221610 0.132751 -0.271838 0.010136 -0.119012 0.317439 0.128621 -0.029645 -0.016868 0.117602 0.078849 0.129097 -0.145869 0.217217 -0.304502 -0.089812 0.080490 0.049838 0.136574 0.137122 0.080577 0.144694 0.080359 -0.153245 -0.564676 0.234731 0.055211 0.135939 -0.033314
5474 0.057795 0.015191 0.170132 0.017688 0.319803 -0.066147 -0.120750 -0.060694 -0.091508 0.068839 0.052988 -0.000212 -0.078031 0.216984 0.217801 -0.160549 0.046783 -0.319846 -0.014869 0.020182 -0.300075 -0.220082 -0.060063 0.079925 0.031082 -0.093927 -0.007128 -0.353234 -0.044380 -0.159654 0.032221 -0.170343
366 0.235858 0.020008 -0.048808 0.153059 0.109054 0.153793 -0.171120 -0.305423 0.103750 0.209897 -0.069665 -0.041060 -0.155915 0.209178 0.018546 -0.037025 -0.025121 -0.161927 -0.220068 0.229604 -0.111625 0.060862 0.125880 0.246341 0.317461 0.037092 0.070868 -0.340177 0.511032 -0.134908 0.121364 -0.074482
3787 0.198596 0.014998 -0.056918 0.202512 0.275026 0.078933 -0.068149 -0.103585 0.007599 0.328420 -0.136200 -0.197269 -0.047161 0.433646 0.056262 0.100948 0.100183 -0.127062 -0.119082 0.040866 -0.081946 -0.139582 0.177555 -0.024635 0.056267 -0.147484 -0.061393 -0.469136 0.067873 -0.257420 0.186034 0.001333
5060 -0.087149 0.496061 0.096755 -0.287552 0.160807 0.063319 -0.487003 -0.160265 0.235084 -0.023502 -0.081541 -0.235673 -0.205652 -0.109784 -0.023504 0.058181 0.260458 -0.240789 -0.162384 -0.039869 0.059222 -0.023041 -0.110305 0.361283 -0.023950 -0.044798 -0.028405 -0.373439 0.245485 0.039263 0.316147 0.250272
3365 0.085044 0.224705 0.061810 0.070661 0.214366 -0.234624 -0.342390 -0.154470 0.177565 0.299504 0.166350 0.061025 0.046589 0.177356 0.105000 -0.292006 0.054591 -0.184642 -0.167463 -0.072889 -0.352231 -0.097864 -0.179707 0.146748 0.094019 -0.093463 -0.186416 0.087634 -0.131353 0.080360 0.204167 0.142963
2693 -0.145853 0.215138 0.182311 -0.115164 0.443229 -0.109438 -0.342481 -0.233258 0.530412 0.329866 -0.132055 -0.066730 -0.141871 -0.037997 0.059790 0.134499 0.095189 -0.224603 0.021090 0.080963 0.041388 -0.199911 -0.171781 0.401248 0.134657 -0.204836 -0.135548 -0.074275 0.154267 0.145033 0.371507 0.388960
191 0.200912 0.131151 0.003181 0.316099 0.186579 -0.096894 -0.270579 -0.152473 0.049041 -0.130507 0.145584 0.052111 0.098957 0.127285 0.250262 -0.265652 0.086225 0.037799 -0.326629 0.077063 -0.187718 -0.057458 0.016405 0.445273 -0.046730 -0.030928 -0.034171 -0.295240 0.233820 -0.066658 -0.027431 -0.353668
1781 0.083067 0.178215 0.071956 -0.310847 0.087621 -0.018032 -0.222106 -0.194362 0.095571 0.126759 0.023685 0.015627 -0.138908 0.021299 0.220184 -0.302006 0.141004 -0.265594 0.085595 0.083180 -0.228152 -0.334908 0.148571 0.176997 0.241475 0.006551 -0.066199 -0.305930 0.001691 -0.087496 -0.007521 -0.067948
3520 0.359236 0.202017 0.081290 0.085509 0.261204 0.247192 -0.258455 -0.187933 0.101402 0.159497 0.176656 -0.069309 -0.096830 0.259750 0.224395 0.068717 -0.213562 -0.073435 0.005815 0.018628 0.052803 0.043212 0.201927 -0.084678 0.040089 -0.158801 -0.073551 -0.333669 0.339068 -0.132989 0.046332 0.013020
2922 0.035908 0.103691 0.126860 0.069170 0.204403 0.058444 0.103797 -0.008641 0.458421 0.026026 0.126835 -0.262589 -0.174605 0.456318 0.494621 0.157281 0.143065 -0.226053 -0.188415 -0.165808 0.029894 -0.323537 0.064796 0.072162 0.183462 -0.014908 0.073809 -0.362219 -0.094787 -0.037033 0.077330 0.157633
5141 -0.086834 0.090950 0.234946 -0.022399 0.278466 0.264974 -0.024845 -0.288737 -0.034230 0.012135 0.222832 -0.015162 -0.059414 0.039434 0.432654 -0.143598 -0.028555 -0.179526 -0.213999 -0.032729 -0.427931 0.028015 0.051756 0.171477 -0.130809 -0.271053 0.083510 -0.323070 0.099618 -0.100178 -0.078866 -0.243741
2702 0.104478 -0.226467 0.028477 -0.159680 0.456055 0.138324 -0.166907 -0.078356 0.188200 -0.114776 0.343756 -0.275734 0.061812 0.113120 -0.028353 -0.103260 0.311618 -0.451465 0.032035 0.044002 -0.426830 0.024716 0.003156 -0.074638 0.028974 0.186526 -0.233618 -0.138753 0.193469 0.021512 0.221941 -0.261113
5462 0.021658 0.037164 0.147461 0.168852 0.248046 -0.215435 -0.165718 -0.037070 0.188088 0.025128 -0.060211 -0.132622 0.232428 -0.088883 -0.015535 -0.058178 -0.069420 -0.228788 -0.337221 0.023177 -0.018174 0.042617 0.290962 0.001956 -0.224784 -0.176297 -0.344847 -0.589505 0.120975 -0.059463 0.131425 0.016219
365 -0.218420 0.188909 0.165443 -0.120285 0.586841 -0.247196 -0.342999 -0.254902 0.136171 0.185174 -0.455785 -0.290722 -0.033937 -0.063056 0.057584 0.147068 0.087232 -0.040921 -0.055569 -0.075265 -0.122341 -0.238978 -0.311858 0.205660 -0.076593 -0.052939 -0.082071 -0.286967 0.182926 -0.216726 0.073179 0.262882
477 0.218931 -0.198543 -0.059596 -0.069896 0.113221 0.013519 -0.411608 -0.272697 0.259439 0.254458 0.059309 -0.271540 0.094451 0.212278 0.259874 0.117705 0.056584 -0.155146 -0.144253 0.383341 -0.119471 -0.203189 0.276275 0.043963 0.327577 -0.226034 -0.201217 -0.042290 0.050426 0.010198 0.381473 0.239007
1983 0.328759 -0.030566 0.031031 0.048003 0.465984 -0.148450 0.239722 -0.213123 0.028742 0.427342 -0.161663 0.023551 -0.109984 0.029897 0.287171 0.030359 0.087208 -0.240285 -0.089743 0.028339 -0.353986 0.027473 -0.250838 0.267384 -0.290152 -0.039051 -0.012752 -0.347927 -0.175013 -0.165560 -0.016605 0.026025
2826 0.163993 0.144725 0.035489 -0.066328 0.407227 0.253588 -0.278206 -0.152518 0.064212 -0.056231 0.037720 -0.088830 -0.019282 0.112151 0.008165 -0.279214 -0.036255 -0.156244 -0.148689 0.017321 -0.017930 0.167427 0.099545 0.036479 0.159802 0.173837 0.051630 -0.305790 0.430530 -0.157057 0.152845 0.077914
4261 0.306993 0.255741 0.343101 0.045318 0.312864 0.041197 -0.275732 -0.046579 0.010038 0.108563 0.122212 -0.021353 -0.097699 0.128657 0.326463 -0.233625 -0.247458 -0.169004 -0.002436 -0.094216 -0.234388 -0.362565 -0.134090 -0.218924 0.082435 -0.056857 -0.315531 -0.085913 -0.000426 -0.090963 -0.359080 -0.000861
5616 -0.017891 -0.147202 0.087441 -0.027135 0.146655 -0.253732 0.118331 0.052571 0.164007 0.151746 -0.082744 -0.232871 -0.000581 0.024956 0.733163 -0.206266 0.089644 0.084026 -0.062229 0.127175 -0.599087 0.315788 0.172232 0.295041 -0.292321 -0.092258 -0.098631 -0.258856 0.009539 -0.361899 0.314038 0.182026
4192 -0.116717 0.284788 0.319907 0.023744 0.513843 -0.069949 0.058117 -0.251985 0.210315 -0.011400 -0.147272 0.238476 -0.183301 -0.181861 0.265271 -0.103819 0.160271 -0.359140 -0.105273 -0.120840 -0.359980 0.062876 -0.063546 -0.015527 -0.094885 -0.029023 -0.219199 -0.308987 -0.082605 -0.174542 -0.231786 0.307014
833 0.100675 0.256800 -0.024510 0.037680 0.302899 -0.177700 -0.332085 0.008670 -0.223615 0.238158 0.108073 -0.021973 -0.053802 0.092358 0.171519 -0.309779 0.159762 -0.210167 -0.057529 -0.100956 -0.001261 -0.236267 0.036122 0.107322 0.156794 0.129541 -0.079364 -0.290151 0.048525 -0.087144 0.199577 -0.082051
4066 0.060499 0.442162 0.049144 -0.205237 0.248389 -0.267071 0.092834 -0.121746 -0.059391 -0.119061 0.112203 -0.078769 -0.029777 -0.006839 0.144244 -0.389651 0.003917 -0.359301 -0.156315 0.013309 -0.187684 -0.203640 -0.065416 0.266050 0.230109 -0.256524 -0.166316 -0.222224 -0.065870 -0.134565 -0.138311 -0.016217
3877 0.175333 -0.090527 -0.069104 0.080914 0.143339 -0.052018 -0.127541 -0.118209 0.116141 0.058380 0.162431 -0.304917 0.115481 0.304582 0.156822 -0.111595 -0.039930 -0.143323 -0.058853 0.089936 -0.071538 0.016181 0.072282 0.196467 0.194205 -0.160958 -0.013952 -0.425985 0.304383 0.087092 0.138961 0.145261
5675 0.057439 -0.071652 0.253386 0.110975 0.268384 0.188446 -0.451122 -0.153009 0.161617 -0.325670 0.031071 0.070169 0.081460 0.094130 0.346582 -0.151797 -0.135950 -0.139433 -0.340471 0.050393 -0.214978 0.040590 -0.152207 0.240350 -0.172992 -0.107596 -0.108979 -0.315951 0.184633 0.005006 0.158158 -0.141158
290 0.208231 -0.010932 -0.080757 -0.127946 0.254398 -0.005841 -0.223072 -0.188928 0.247398 -0.012994 0.089103 -0.192297 0.071490 0.139533 0.113595 -0.017454 0.095416 -0.259953 -0.194087 0.083245 0.105647 -0.063130 0.200063 0.164231 0.086599 -0.155371 -0.130375 -0.296795 0.306219 0.102774 0.056390 0.119087
1108 -0.113812 -0.000649 0.042292 0.050894 0.302570 -0.159187 -0.090869 -0.085862 0.274209 0.180864 0.220273 -0.267538 -0.099473 0.320094 0.042880 -0.148688 0.056085 -0.236321 -0.102504 0.189261 -0.054813 -0.204865 0.104265 -0.038472 0.037384 -0.238852 -0.107274 -0.142850 0.242483 -0.182740 0.177639 0.244708
3442 0.142630 0.178193 -0.399887 -0.515199 0.054447 -0.140518 0.238741 -0.735738 0.135447 0.284509 -0.093627 -0.668968 0.051639 0.051931 0.195828 0.226919 -0.352779 -0.139750 -0.216901 0.403864 -0.229596 -0.316662 0.068476 -0.110301 0.112695 -0.203095 -0.122225 -0.206634 0.329514 -0.009789 0.342253 -0.210726
1911 0.242567 0.239578 -0.039009 0.204087 -0.011748 -0.010175 -0.193427 -0.109149 0.266200 0.023637 -0.001387 -0.333007 0.282011 0.260104 -0.110369 0.061771 0.047549 -0.021267 -0.015919 -0.032650 -0.322500 0.088894 0.267008 0.009758 0.051639 -0.100643 0.071463 -0.622939 0.290426 0.057511 0.025910 0.115561
461 0.109185 0.302328 0.135345 0.086180 0.179866 -0.287930 -0.279018 -0.099143 0.145100 0.458855 0.237815 0.057783 0.154447 0.137611 -0.038133 -0.242214 -0.042240 -0.135955 -0.287388 0.013328 -0.360000 -0.175800 -0.079728 0.005086 0.162888 -0.190757 -0.086454 0.059754 0.109865 -0.016292 -0.079313 0.279945
4592 0.469826 0.185406 0.034592 0.165944 0.217854 0.113813 -0.065756 -0.225165 0.216935 -0.071519 -0.042169 -0.016109 -0.131365 -0.016885 0.158982 -0.285226 0.086988 0.026455 -0.109262 -0.016020 -0.110734 0.078528 0.126899 0.211508 -0.017689 0.049423 -0.295373 -0.494091 -0.013700 0.017084 0.006112 -0.184109
4868 0.032583 0.066204 -0.030063 0.234813 -0.018469 -0.068267 -0.037918 -0.295276 0.085051 0.017954 0.090518 -0.005276 0.054475 -0.084231 0.274441 -0.515935 -0.003206 -0.410670 -0.118096 -0.126197 -0.289618 0.030275 0.078331 0.111880 -0.007795 0.136467 -0.072888 -0.323929 0.264089 0.036192 0.115144 -0.166619
5802 0.383410 -0.039333 -0.149624 0.124166 0.082452 0.118564 -0.078348 -0.126447 0.301009 0.289518 -0.008711 -0.035346 0.048354 0.260408 0.035630 0.050292 0.044904 -0.217101 -0.149275 0.212705 -0.029027 -0.003486 0.155189 0.343383 0.238950 -0.076314 -0.048292 -0.432858 0.326518 0.008760 0.087665 -0.037590
5914 0.042507 0.022535 0.158831 -0.175983 0.217832 0.001276 -0.236477 -0.001648 0.134837 -0.040104 -0.178642 -0.262253 -0.184472 0.562129 -0.124820 -0.122352 -0.131107 -0.206604 0.005456 -0.251021 -0.305094 -0.058146 -0.059605 0.018018 0.080914 0.160324 -0.099258 -0.297729 0.333646 -0.204616 0.096261 0.017753
3251 0.314000 0.160987 0.054881 0.020400 0.357284 0.171562 -0.294118 -0.158109 -0.069504 0.255021 -0.105518 -0.029119 0.055735 0.219327 0.338166 -0.049453 -0.015476 -0.083629 -0.136835 -0.078585 0.085252 0.254678 0.095576 0.114678 0.115338 -0.064720 0.048090 -0.165858 0.497607 -0.087132 -0.003439 0.126874
1989 0.058860 0.183308 0.075072 0.008191 0.430098 -0.056139 -0.360603 0.147578 0.080188 0.094237 0.059828 -0.434252 -0.346772 0.022294 0.046492 -0.111758 0.059964 -0.350545 -0.050706 0.014159 0.062373 0.040822 -0.119170 0.091694 0.075224 0.191972 -0.151671 -0.151189 0.274646 -0.110352 0.022092 0.059556
4724 0.166582 0.075553 -0.198480 0.285902 0.210225 -0.016947 -0.093112 -0.154322 0.080775 0.266152 -0.101937 -0.169531 0.177770 0.192686 0.058529 -0.031913 0.039924 -0.339771 0.044063 0.013893 -0.041351 0.176269 0.191154 0.111676 0.078494 -0.081052 -0.000777 -0.494129 0.383526 0.101743 -0.051882 -0.007389
3049 0.210487 -0.188881 -0.095870 -0.081392 0.118058 -0.006367 -0.211830 -0.156374 0.176602 0.037292 0.334780 -0.077709 -0.021625 0.229742 0.056610 -0.034975 0.081464 -0.071137 -0.327605 0.031017 -0.166515 0.028811 0.253904 0.118991 0.064086 -0.100881 -0.190608 -0.444704 0.316771 0.129855 0.151338 0.173343
3156 -0.197021 0.034234 0.174951 -0.022275 0.138387 -0.107724 -0.412779 0.041173 0.054479 0.290845 0.041916 -0.324010 -0.034456 0.339033 0.171676 -0.015895 0.127648 0.016622 -0.266682 -0.269488 -0.080968 -0.254109 0.098269 0.043435 -0.015954 -0.072424 -0.076109 -0.314208 0.313681 -0.209528 0.067568 0.007075
5824 0.131937 0.256665 -0.284301 -0.026442 0.243255 -0.402535 -0.004655 -0.189750 -0.013342 -0.106584 0.173438 -0.061449 0.001345 0.357519 0.017331 -0.144160 0.324923 -0.148833 -0.222364 0.196752 -0.173265 -0.010377 -0.125732 0.143397 -0.049195 -0.376374 -0.183219 -0.193836 0.462488 -0.042739 0.010510 0.120817
3507 0.035473 0.326160 0.255940 0.052439 0.337650 -0.338522 -0.150109 -0.352584 0.112917 0.070196 0.119906 0.169840 0.106509 0.135454 0.194442 -0.229068 0.003723 -0.383450 -0.157847 0.042184 -0.344196 -0.074441 -0.113787 0.014385 0.020027 0.015312 -0.316559 0.113353 -0.231174 0.141155 0.012901 0.032139
4051 0.377498 0.147166 0.137139 -0.016956 0.401308 0.265850 -0.164940 -0.217234 0.091094 0.130898 -0.015218 0.092458 0.264519 -0.055148 0.213477 -0.352412 -0.075870 0.196766 -0.420559 -0.052735 -0.043593 0.251284 0.128746 0.160245 0.212416 0.072490 0.003531 -0.387404 0.267719 0.029468 0.135034 -0.102591
4659 0.011589 0.154711 0.140706 0.173734 0.050172 -0.317898 -0.382700 0.049567 0.070057 0.120089 0.089026 -0.016162 0.179553 -0.013306 0.195753 -0.384298 0.045106 -0.169617 -0.210484 -0.126488 -0.290678 -0.331742 -0.065303 -0.038657 -0.137258 0.002851 -0.215737 -0.213613 0.345488 0.006807 -0.137658 -0.046122
6 0.106140 0.107238 0.029247 -0.015302 0.138946 -0.059109 -0.054933 -0.059508 -0.039151 0.476770 0.199314 -0.072378 0.025579 0.140236 0.170181 -0.107019 0.202496 -0.243666 -0.237806 0.180501 -0.315819 -0.097057 -0.018437 0.129803 0.044804 -0.124045 -0.186484 -0.110645 0.162730 -0.175262 0.038112 0.023800
816 0.120000 0.208568 0.086661 0.090984 0.117359 -0.444349 -0.383516 -0.124366 0.004603 0.310892 0.158979 -0.149678 0.233175 0.172003 0.035404 -0.271184 0.119735 0.072228 -0.098322 -0.139888 -0.311740 -0.411901 -0.206657 0.138879 -0.163788 -0.163497 -0.106239 -0.089518 0.164947 -0.171296 0.130471 -0.130191
92 -0.091286 0.010998 0.165523 0.125163 0.173037 -0.131064 -0.153227 -0.338114 0.289164 0.047121 0.053828 -0.017495 -0.134459 -0.001139 0.460536 -0.337709 0.063638 -0.307459 -0.187391 0.006497 -0.206308 -0.389961 0.077423 0.026847 0.158753 0.026122 -0.088817 -0.094372 -0.114072 0.033546 -0.138237 -0.079613
4049 0.255347 -0.085617 0.172630 -0.073937 -0.011838 0.109061 -0.358265 -0.442160 0.014556 0.034795 -0.018662 0.046818 -0.208033 0.138241 0.237563 -0.071974 0.284990 -0.344772 -0.043950 0.044789 -0.517470 0.058263 0.082640 0.179437 0.032179 -0.171702 0.108258 -0.220542 -0.091120 -0.048289 -0.061813 0.170972
3772 0.156057 0.251468 0.295638 0.124740 0.375633 0.052864 0.032408 -0.202827 0.042153 0.163081 0.006434 -0.088324 -0.108359 0.133112 0.377161 -0.187507 -0.165248 -0.103874 0.025023 -0.188023 -0.414614 -0.166030 0.040047 -0.078151 0.014868 -0.031527 -0.178614 -0.191373 -0.170698 -0.104368 -0.290692 -0.021942
979 -0.037146 0.117444 0.207132 0.001139 0.226511 0.160528 -0.091403 -0.340938 0.177758 0.310714 0.070628 -0.213269 -0.212414 0.195996 0.233607 0.007111 -0.061838 -0.141450 -0.034812 -0.145739 -0.228921 -0.114529 -0.124301 0.120814 -0.169515 -0.320414 -0.027683 -0.391584 -0.012812 0.139307 -0.113015 -0.053356
1504 0.391664 0.095518 -0.072426 0.373760 0.317899 0.217901 -0.225102 -0.085727 0.078280 -0.013374 -0.344837 -0.055901 -0.002274 0.159941 0.145017 -0.011797 0.039324 -0.167857 -0.066210 0.116256 -0.324929 0.036353 -0.023759 0.490533 0.009491 0.130146 0.166323 -0.246128 0.373074 -0.232706 -0.114890 0.008451
3098 0.141259 0.085790 0.001459 0.120232 0.395447 -0.270844 -0.206584 -0.022773 0.058391 0.198292 -0.065441 -0.086690 -0.128749 0.276277 0.272365 -0.286831 -0.050306 -0.001959 -0.118543 -0.105522 0.006046 0.007158 -0.156702 -0.008376 -0.115101 -0.295294 0.083529 -0.288527 0.090241 -0.180133 0.326098 -0.047580
3508 0.474661 0.044156 0.079638 0.203391 -0.049819 0.240503 -0.183272 -0.274747 0.121300 -0.284604 0.068605 -0.044799 0.100100 0.093094 0.229813 -0.301296 -0.064935 -0.127990 -0.412995 0.209875 -0.459425 0.084811 -0.184457 0.422234 0.043346 0.014715 0.142805 -0.209374 0.323776 -0.297276 -0.325262 -0.211107
1831 0.279666 0.091350 0.267490 -0.056165 0.083511 -0.080295 -0.012723 -0.107020 0.114402 0.352823 0.055597 0.105349 0.053272 -0.113520 0.214695 -0.227197 0.033874 -0.337049 -0.160528 0.130536 -0.330747 -0.046158 0.009681 -0.013073 0.096838 -0.019373 -0.233309 -0.227925 0.100827 -0.206314 -0.185323 -0.190425
3409 0.202314 0.178522 -0.044205 -0.110603 0.260808 -0.253136 -0.357121 -0.174569 0.172410 0.301987 0.187242 0.157044 0.141777 0.119831 0.145713 -0.267206 -0.017638 -0.233317 -0.196218 0.071309 -0.485637 0.174499 -0.179839 0.033886 0.255817 -0.096198 -0.251437 0.136405 -0.192983 0.258533 0.191898 0.028230
493 -0.005180 -0.016372 -0.114894 -0.396885 0.296737 -0.162437 -0.193643 -0.002622 0.274579 0.050601 0.134499 -0.164467 0.032612 0.249446 0.134410 -0.000143 0.175327 -0.188162 -0.234163 0.301389 -0.189979 -0.093156 0.284611 0.026755 0.038934 -0.196384 -0.164480 -0.228619 0.039395 -0.044324 0.166631 0.107618
4429 0.329466 0.059647 -0.119505 0.280967 0.100978 0.058127 -0.208050 -0.163225 0.162896 -0.050633 -0.094348 -0.204461 0.019005 0.269003 -0.010594 -0.049954 0.021672 -0.130889 -0.201150 0.282731 -0.155643 0.044733 0.140903 0.263759 0.013686 -0.155652 -0.027453 -0.312051 0.495604 -0.102482 0.021980 -0.138377
727 -0.069105 0.140843 0.172230 0.237131 0.137582 -0.260645 -0.148912 -0.245495 0.397633 -0.134035 0.193837 -0.212921 -0.187952 0.247885 0.319958 -0.403934 0.032141 -0.114767 0.065173 -0.125188 -0.197348 0.054856 0.132735 0.116431 -0.166494 0.027911 0.142946 -0.224353 -0.109815 -0.149133 0.206832 -0.047507
2764 0.264628 0.012500 0.097783 0.073078 0.144054 0.013427 -0.029423 -0.213992 0.140305 0.202702 -0.112581 0.136220 0.118166 -0.037784 0.117183 -0.250196 0.044271 -0.299277 -0.211279 0.097031 -0.353339 0.198350 -0.038318 0.267545 0.070159 0.217526 0.090720 -0.421524 0.253975 0.060989 -0.019065 -0.261056
1875 0.135481 0.189627 0.400613 -0.084322 0.161663 -0.147896 0.037056 -0.059096 -0.025481 -0.023911 0.119598 -0.528676 0.104251 0.066008 0.414000 -0.111521 -0.279057 0.193033 0.088124 0.144957 -0.469346 0.253774 0.615345 0.597896 -0.229747 0.080667 -0.065194 -0.308393 -0.186928 -0.233706 0.394734 0.040574
2911 0.105806 0.338867 0.406146 0.209443 0.407051 0.035318 -0.426910 -0.006105 0.113723 -0.016945 0.034007 0.138750 -0.098577 -0.070706 0.307305 -0.166606 -0.183176 -0.267614 -0.207887 -0.012012 -0.353776 -0.151457 -0.216190 0.031648 0.017485 0.171208 -0.217613 0.033115 -0.026708 -0.191811 -0.322503 0.100050
6002 -0.124508 0.176916 -0.180500 0.069060 0.485060 -0.248325 -0.333477 -0.069912 -0.187069 0.255240 0.152417 -0.240521 -0.154868 0.316589 0.012728 0.053087 0.085223 -0.086762 -0.180884 0.162057 -0.075537 -0.110224 0.030921 -0.078467 0.019908 0.054355 -0.091724 -0.313937 0.134406 -0.112983 0.207581 0.057061
2309 0.077906 0.322557 -0.081258 0.028441 0.195194 -0.224831 -0.405662 -0.180678 0.173306 0.261605 0.078263 -0.056907 0.114752 0.116145 0.308646 -0.143712 -0.026929 -0.255831 -0.166144 0.023278 -0.290824 0.063473 -0.231302 0.218665 0.123854 0.037141 -0.017444 0.057174 -0.128360 0.175956 0.046012 -0.029027
1664 0.053611 0.213778 0.050067 0.234423 0.233580 -0.139857 -0.151628 -0.161152 0.297782 -0.083995 0.349709 -0.221200 -0.236023 0.224569 0.216633 -0.420864 0.043294 -0.193152 0.162844 -0.097837 -0.130594 0.005533 0.112663 0.135962 -0.156461 -0.053991 0.029149 -0.113944 0.061241 -0.079178 0.288186 -0.281241
3223 -0.013304 0.231735 0.251040 -0.173940 0.466621 0.044431 0.026092 -0.203479 0.054740 -0.004963 -0.305663 -0.164153 0.016790 0.066137 0.258678 -0.069551 0.182409 -0.247081 -0.083294 -0.049127 -0.112786 0.039069 0.007581 0.091465 0.075431 0.069605 -0.277265 -0.341743 -0.110236 -0.293137 -0.116480 0.101056
2466 0.155597 0.131550 -0.088323 0.083135 0.150263 -0.103248 -0.184294 -0.237436 0.237342 0.041128 0.078936 -0.231374 -0.129248 0.194960 0.046005 -0.109428 -0.133520 -0.196090 -0.193203 0.117582 -0.178539 -0.130883 0.110079 0.071219 -0.024217 -0.011366 0.094391 -0.259364 0.026284 -0.037029 0.222489 0.252479
734 0.005525 0.198811 -0.035214 -0.058122 0.537959 -0.083764 -0.279339 -0.354560 0.026750 -0.075925 -0.239742 -0.066015 -0.271556 -0.148774 0.139391 -0.129076 0.294652 -0.204955 -0.026000 -0.163452 -0.182599 0.151233 -0.171854 0.174845 -0.266090 -0.250264 -0.310121 -0.247434 0.021982 -0.140055 -0.021061 0.436184
6513 0.337243 0.292164 -0.325974 0.008672 0.348125 -0.274282 -0.259675 -0.181686 -0.172851 -0.103254 -0.323054 -0.184427 0.067964 0.127185 0.113183 0.015831 0.397986 0.003773 -0.124728 -0.059952 -0.296079 0.008242 -0.096909 -0.032252 -0.150579 -0.486348 -0.101812 -0.328493 0.209498 -0.276982 -0.084489 0.366684
3857 0.151691 -0.040398 -0.127761 0.081406 0.185143 0.156464 -0.078055 -0.043756 0.142942 -0.024486 0.046053 -0.062160 -0.009582 0.376240 -0.010736 -0.172000 0.076609 -0.285940 -0.058598 0.176613 -0.404739 0.125367 -0.017613 0.236126 -0.029121 0.139869 0.094741 -0.385622 0.369595 -0.265431 0.038542 -0.176526
3414 -0.008946 0.092775 0.070377 0.143668 -0.045893 -0.171145 -0.369187 0.135260 0.093698 0.105710 0.051334 -0.166373 0.217967 -0.156399 0.448381 -0.293753 -0.022643 -0.297991 -0.481813 -0.036979 -0.340230 -0.215897 -0.221921 0.023665 -0.126039 0.079784 -0.224395 -0.136029 0.224139 -0.061479 -0.137913 0.029958
1373 0.013117 0.367199 0.090934 -0.003783 0.434900 -0.137902 -0.300841 -0.382070 0.069316 0.182649 -0.166123 0.159794 -0.070867 -0.013880 0.101064 0.067265 -0.071396 -0.143115 -0.228920 -0.054552 -0.318556 -0.210327 -0.016134 0.079634 -0.181452 0.047163 -0.402648 -0.061056 0.104854 0.195607 0.006286 0.203990
1452 0.142958 0.051988 -0.001094 -0.088157 0.236231 -0.049075 -0.135676 -0.217609 0.193185 0.230915 -0.095170 -0.238301 -0.059682 -0.018456 0.321731 -0.021441 -0.088226 -0.083043 -0.132586 -0.085296 -0.084015 -0.078329 0.371336 0.146712 -0.104837 -0.174797 -0.217810 -0.242654 -0.005068 -0.170114 0.208537 0.209120
3246 0.427281 -0.037169 0.158254 0.130638 0.049787 0.025281 -0.015631 -0.354244 0.059086 -0.137339 -0.098483 0.001713 -0.109506 0.093144 0.270819 -0.309787 -0.033668 -0.210682 -0.336213 -0.019525 -0.084510 0.048471 -0.028830 0.138280 0.189848 -0.129497 0.011430 -0.527041 0.061461 0.082149 -0.156753 0.069785
6142 -0.186749 0.647841 -0.130920 0.012871 0.341576 0.205116 -0.371255 -0.525283 0.200919 0.061967 -0.248321 -0.296944 -0.372717 -0.103271 0.180271 0.135116 0.264349 -0.144309 0.025334 0.263037 -0.063640 -0.053995 -0.300436 0.011491 -0.214563 -0.113771 -0.203892 -0.307079 -0.147597 -0.265742 0.236262 0.227529
2587 0.099509 0.352760 -0.193537 -0.054988 0.178749 -0.198192 -0.132839 -0.166468 -0.066839 -0.125656 0.200742 -0.116907 0.062692 0.265340 -0.040798 -0.057915 0.159740 -0.208273 -0.282209 0.158700 -0.085300 0.031192 0.159530 0.034625 -0.010167 -0.391983 -0.205507 -0.326700 0.344151 -0.073885 0.022138 0.116127
3099 0.186849 -0.124845 0.147766 -0.126788 0.097568 -0.132897 -0.211827 -0.188441 0.339926 -0.140431 -0.008426 -0.018860 -0.090903 0.061896 0.455469 -0.161051 0.045987 -0.347335 -0.008961 -0.013804 -0.425031 -0.331351 0.105282 0.058472 0.119137 0.138658 0.000240 -0.144126 -0.019250 0.018207 -0.082872 0.053083
3019 0.283567 0.267558 0.088627 0.154358 0.214634 -0.076809 -0.015879 -0.018689 -0.040766 0.050268 0.074969 0.056868 -0.103891 0.099796 0.237831 -0.235844 -0.134924 -0.519108 -0.102470 0.064491 -0.135850 -0.255666 -0.115236 -0.065082 0.061718 -0.057343 -0.230811 -0.325746 -0.054623 0.082000 -0.195785 -0.155146
3383 0.039368 -0.148279 0.206121 0.010595 0.231033 0.064333 -0.235830 -0.002682 0.286518 -0.031615 0.074350 -0.440994 0.090989 0.372324 0.333748 -0.058517 0.032148 0.028749 -0.011816 -0.104931 -0.172865 -0.298165 0.027332 0.002562 0.162506 -0.021099 -0.154385 -0.283086 0.127083 -0.124500 0.206581 0.102004
5128 0.040884 0.159450 -0.163003 0.203740 0.348776 0.085692 -0.122333 -0.083534 0.150823 0.041277 0.047082 0.178962 -0.054337 0.107087 0.266969 -0.277689 -0.170085 -0.282604 -0.107246 -0.186815 -0.315431 -0.208141 0.189702 -0.007536 0.078871 0.124196 0.035958 -0.333229 0.028748 -0.032382 0.072169 -0.170920
5400 -0.059813 0.055326 0.281267 -0.062785 0.189331 -0.136356 -0.068858 0.092637 0.016320 0.253377 0.017572 -0.208415 0.034032 0.014474 0.372780 -0.113413 -0.140150 -0.189344 -0.216236 0.032059 -0.528558 0.110965 0.273598 0.361193 -0.202496 -0.082166 -0.045485 -0.087336 0.117621 -0.169396 0.033714 0.035440
4847 0.029895 0.113114 0.244583 0.037869 0.265511 0.008421 -0.383820 -0.055197 0.330323 0.137007 0.200403 -0.004006 -0.065422 0.238277 0.185856 0.016217 0.127874 -0.294464 -0.108072 0.126943 -0.324398 -0.030425 0.215452 -0.010489 0.149330 -0.047160 -0.093659 0.119941 0.083062 -0.029151 0.135281 0.234724
4984 0.100487 0.064490 0.136671 0.231614 0.240997 0.136702 0.025216 -0.042085 0.161278 0.096055 0.037752 -0.217536 -0.073745 0.329292 0.407981 0.104242 0.070176 -0.453845 -0.061547 -0.178066 -0.005131 -0.337552 0.042964 -0.002105 0.266179 0.039548 -0.106663 -0.325339 -0.031686 -0.004811 0.060435 0.003108
5724 0.332959 -0.004560 -0.039395 0.116247 0.030881 0.020014 -0.290929 -0.353156 0.171798 0.044070 0.095487 -0.154841 -0.249577 0.205086 0.010719 0.045315 -0.157454 -0.148856 -0.202580 0.168621 -0.146483 0.118172 0.249890 0.088104 0.116544 -0.062105 -0.088804 -0.273599 0.542776 -0.044623 -0.072799 -0.249785
4745 -0.135172 0.051479 0.074920 -0.050295 0.295371 -0.070045 -0.473422 -0.078388 0.175991 0.212509 0.062151 0.041698 -0.015671 0.222743 0.046115 -0.077975 0.011659 -0.431129 -0.216009 0.055037 -0.292703 0.136533 -0.037950 0.062559 0.247085 -0.013175 -0.210145 -0.010842 0.030664 0.065425 0.088053 0.161971
6063 -0.065718 0.290006 0.051684 0.086201 0.222758 -0.387060 -0.386753 -0.199095 0.155036 0.291675 0.058849 0.018748 0.081285 0.376075 -0.054644 -0.319471 0.096125 -0.184534 -0.171631 -0.018754 -0.502377 -0.074137 -0.202171 -0.021966 0.020008 -0.211352 -0.166433 0.195564 -0.041557 0.007771 -0.000921 0.068623
2356 -0.103138 0.003296 0.110451 0.102315 0.146556 -0.214913 -0.415826 -0.048224 0.006788 0.293198 0.126439 -0.313952 0.156604 0.274080 -0.117288 -0.135703 0.215182 -0.116509 -0.367468 -0.251527 -0.150934 -0.209226 0.113725 -0.004082 -0.011308 -0.057012 -0.144714 -0.209886 0.231837 -0.259733 0.129852 -0.052477
3320 0.304350 0.098088 0.039652 0.081830 0.316978 0.108070 -0.206928 -0.188903 0.179756 -0.055427 -0.022321 0.037814 0.123320 -0.167806 0.251275 -0.422519 -0.044729 0.076591 -0.183067 0.150617 0.054205 0.015333 0.060161 0.271625 0.146729 0.164044 -0.061401 -0.611910 0.008194 -0.023584 0.075928 -0.126110
3103 0.181012 0.159320 -0.042888 0.002641 0.115135 -0.399445 -0.318508 -0.032448 0.277447 0.161930 0.154323 0.159285 0.078597 0.035064 -0.101964 -0.359953 0.038285 -0.344431 -0.143184 -0.135113 -0.339606 -0.025694 -0.141652 -0.039601 -0.212272 -0.224857 -0.162152 -0.189556 0.007617 -0.158142 0.023152 0.136136
4324 0.123245 0.080737 0.045277 -0.043246 0.146082 0.164728 -0.036529 0.086475 0.110242 -0.098560 0.016234 -0.408565 0.062699 0.318451 0.261635 0.001548 0.158892 -0.334978 0.003342 -0.030121 -0.310296 -0.113676 0.044197 -0.160089 0.014942 -0.031153 -0.117064 -0.400364 0.083233 -0.151156 0.131493 0.056629
1487 0.221110 0.141962 0.216359 -0.045644 0.095971 -0.105440 -0.120893 -0.033308 0.123758 0.034968 0.047338 0.137706 0.185511 -0.052860 0.228736 -0.435974 -0.262492 -0.440152 -0.248895 0.016584 -0.473829 0.022301 -0.216904 -0.061152 0.004089 0.262028 -0.132201 -0.224421 -0.116160 -0.135273 -0.110043 0.356600
2805 0.250991 0.173933 -0.032119 -0.039645 0.442364 0.350594 -0.223278 -0.165827 0.030334 0.277502 -0.051982 -0.130688 0.051103 0.149677 0.045661 -0.007893 0.163084 -0.075021 -0.132208 0.090771 0.017601 0.245510 0.051966 0.175042 0.158573 -0.057875 0.013880 -0.305177 0.515998 -0.011649 -0.039870 0.106341
2890 0.109428 0.136256 0.101288 0.198637 -0.005642 -0.328919 -0.297998 0.137261 0.067131 0.038376 0.054644 -0.306590 0.233684 -0.070719 0.313497 -0.265312 -0.056078 -0.179915 -0.301885 -0.199495 -0.354874 -0.241606 -0.175631 0.084103 0.060809 0.170008 -0.209591 -0.156801 0.308435 -0.104167 -0.192950 -0.045132
5440 0.235869 0.147752 -0.031677 0.037110 0.278901 0.064483 -0.046553 -0.131463 0.054064 0.143015 0.194967 -0.021542 0.248891 0.003200 0.202157 -0.372022 0.021106 -0.184810 -0.196659 0.132999 -0.333787 0.102657 -0.112893 0.146306 0.136338 0.071270 0.005742 -0.271657 0.185952 0.293907 -0.067234 0.042036
6406 0.434896 0.091135 -0.138992 -0.137613 0.319716 0.104724 -0.151844 -0.370165 0.299537 0.096094 0.220451 -0.244695 0.202404 -0.175070 0.079429 -0.405677 0.172572 0.055962 0.217412 0.031379 -0.180688 -0.097435 0.000017 0.371956 0.084575 0.011729 -0.323161 -0.290979 -0.049009 0.333729 0.201718 -0.075277
1477 0.015466 0.103123 -0.064102 -0.142441 0.244675 -0.011196 -0.299593 -0.159001 -0.061042 0.171865 -0.264474 -0.169561 -0.262584 0.131250 0.329628 0.145984 -0.034583 -0.186504 -0.039162 0.122950 -0.170424 0.016226 0.152131 0.060598 0.111077 -0.097803 0.065198 -0.373339 0.296802 -0.011476 0.230580 0.124253
3058 0.239311 -0.195716 0.153908 -0.011566 0.077398 0.082737 -0.344462 -0.564740 0.000957 -0.075741 0.303326 -0.128552 -0.151453 -0.101986 0.394526 -0.294154 0.160042 -0.112594 -0.084751 -0.038868 -0.265343 0.045698 -0.083992 0.155040 -0.062958 -0.161060 0.066563 -0.323840 -0.048587 -0.061790 0.186108 -0.054910
5714 -0.066843 0.055055 0.172941 0.234166 0.230761 0.174887 -0.000391 -0.222672 -0.028407 0.407807 0.019903 -0.370612 -0.146071 0.273269 0.214854 0.189985 0.207045 -0.347497 -0.082044 0.002361 -0.116588 -0.171497 0.134190 0.031268 0.178368 -0.113473 -0.250084 -0.319541 -0.015781 0.004343 0.075923 -0.026913
102 0.053820 0.227396 0.025758 -0.279353 0.211736 0.015731 -0.478108 0.177691 0.365442 -0.038295 0.169395 -0.304675 -0.238488 0.023624 0.041352 -0.007713 0.244715 -0.135437 0.127886 0.039565 -0.007430 0.011931 -0.085124 0.107288 0.099192 -0.030045 -0.025729 -0.598774 0.307196 0.089061 -0.138163 0.345937
4196 0.326838 0.241080 0.105179 -0.014699 0.266571 -0.036595 -0.094278 -0.077797 0.101973 0.153881 -0.060287 -0.064032 -0.244661 0.090398 0.245602 -0.230821 -0.016944 -0.230630 0.118606 -0.173772 -0.272796 -0.299679 -0.071208 0.147691 0.184274 0.067496 -0.492928 -0.154407 -0.290423 -0.013613 -0.023330 -0.102931
2142 0.371782 0.102940 0.232995 0.134999 0.138116 0.109183 -0.062953 -0.176229 0.067211 0.181779 0.037996 0.053809 0.084074 0.013042 0.148249 -0.268318 -0.131498 -0.202872 -0.081908 0.174464 -0.279840 -0.000823 -0.201214 0.201353 0.208499 0.019508 -0.099726 -0.364440 0.250952 0.053676 -0.189274 -0.139574
1568 0.277684 0.144902 -0.089737 0.122753 0.018709 0.149510 -0.071010 -0.111267 0.056390 0.256475 -0.068444 -0.029545 -0.078156 0.465266 0.021970 -0.099557 0.215321 -0.305386 -0.183749 0.169222 -0.028485 0.134448 0.059223 0.263397 0.154617 0.045016 0.034291 -0.437927 0.384480 0.000990 -0.043989 -0.139902
1118 0.283310 0.218324 -0.065451 0.009594 0.359786 0.139954 -0.009109 -0.171008 -0.045723 0.062930 0.220251 -0.025166 0.198978 -0.212141 0.229016 -0.421222 -0.002510 -0.122924 -0.182577 0.106411 -0.319469 0.137475 0.092635 0.007867 0.193104 0.142168 0.056581 -0.400447 0.015816 0.125114 0.114088 0.185560
3429 0.168949 0.088685 -0.046513 -0.045680 0.307816 -0.238636 -0.273701 -0.146087 -0.039181 0.191370 -0.011766 -0.176123 0.037950 0.190093 0.099525 -0.010421 -0.001866 -0.190480 -0.159979 -0.083043 -0.133433 -0.052781 -0.166214 0.123353 -0.233945 -0.215003 -0.207415 -0.115559 0.189042 -0.145000 0.288901 0.241817
5873 0.127051 0.190338 -0.109255 0.268348 0.372731 -0.149331 -0.346533 0.092782 -0.342798 0.281294 0.140303 -0.074983 -0.125002 0.205451 0.026116 -0.175692 0.139050 -0.149945 -0.179797 0.154060 -0.242470 -0.293596 0.020400 0.049172 -0.005895 0.074899 0.071717 -0.247503 0.098269 -0.166194 0.211318 -0.054434
2020 -0.069728 0.444568 0.109363 -0.029807 0.156708 -0.137655 -0.275167 -0.076824 0.101839 0.149365 0.266809 -0.339247 -0.378198 0.000594 0.244800 -0.327671 -0.047901 -0.197039 -0.075281 0.272635 -0.068096 -0.322679 -0.220779 -0.041449 0.219336 0.230638 0.013350 -0.328703 -0.318910 -0.060853 0.038351 -0.079728
5387 0.238662 0.071082 -0.259070 0.126708 0.421645 -0.050135 0.006476 -0.208707 -0.033778 0.166435 0.405027 -0.126035 0.068009 -0.134426 0.143057 -0.446683 -0.148989 -0.149610 -0.092427 -0.126239 -0.163639 -0.281611 0.035545 0.446251 0.249006 -0.177300 0.249876 -0.380058 -0.050172 0.246004 0.077050 -0.011022
981 0.318298 -0.044098 0.234516 0.105918 0.159952 0.293834 -0.276393 -0.025999 0.130665 -0.086612 0.054523 0.019711 0.106580 0.351348 0.314161 -0.164249 -0.281163 -0.086552 -0.249309 -0.139787 -0.213235 -0.241952 -0.242912 0.295964 -0.281409 -0.398339 -0.064307 -0.458650 -0.068753 0.112317 0.127571 -0.153263
4389 0.507301 -0.160538 0.089210 0.407960 0.023987 0.187974 -0.329980 -0.427724 0.170139 -0.128911 -0.113390 -0.047291 -0.352227 -0.048245 0.113760 -0.252103 -0.343988 0.021708 -0.498465 0.032520 -0.425377 0.137160 -0.144648 0.390128 0.115015 -0.156161 0.039697 -0.329568 0.140018 0.050865 0.027200 -0.038853
2109 0.256534 0.376869 -0.036363 -0.067484 0.209923 -0.225857 -0.107397 -0.188280 0.039448 0.198991 0.103086 0.050648 0.122612 0.224154 0.220398 -0.245889 -0.059933 -0.310821 -0.353798 -0.118645 -0.246650 0.133026 -0.398576 0.105727 0.099755 -0.334336 -0.054244 -0.002496 -0.132721 0.231941 0.163329 0.038111
3161 0.149423 0.142385 -0.110891 0.070588 0.272659 0.134571 0.016484 -0.150572 -0.004112 0.296843 0.153101 0.002479 0.176757 -0.087289 0.193062 -0.457303 -0.057182 -0.338615 -0.079390 -0.153154 -0.342869 -0.184884 0.092958 0.117457 0.317258 -0.153201 0.091126 -0.274577 0.102756 0.322977 0.018559 0.086048
4910 0.064506 0.197213 -0.092005 -0.340696 0.158644 0.007948 -0.418761 -0.053409 0.004510 -0.118622 0.173551 -0.262051 -0.071402 0.286315 0.237410 0.009255 -0.188525 -0.442022 0.076186 -0.273922 -0.157879 0.083807 0.277861 -0.074596 0.040899 0.239386 -0.028242 -0.239750 0.230715 -0.236286 -0.064589 -0.002013
219 0.220495 0.073558 -0.116112 0.119667 0.371909 0.085361 0.035997 -0.248579 0.027432 0.174798 0.112854 0.117992 0.190136 -0.096938 0.263246 -0.353366 -0.017663 -0.233580 -0.123531 0.031883 -0.296447 0.047025 0.029977 0.109824 0.284266 -0.038999 0.151350 -0.320483 0.245920 0.234864 0.151513 -0.057892
4632 0.220579 0.440255 -0.138457 0.043991 0.204360 -0.247051 -0.326263 0.009879 0.353653 0.404862 0.091363 -0.009359 0.206489 0.170907 0.099771 -0.093552 -0.073458 -0.207693 -0.307978 -0.055275 -0.438113 0.091375 -0.437624 0.207180 0.168895 0.006308 -0.098142 0.155750 -0.179814 0.236465 0.236082 0.267868
4738 0.356478 0.318617 -0.193040 0.286306 0.093298 -0.056693 -0.058726 -0.120937 0.055350 -0.050209 -0.082016 -0.028073 0.060338 0.146221 0.115147 -0.168404 0.073407 -0.271751 -0.234574 0.232578 -0.275089 0.063166 -0.050821 0.281954 0.042038 0.030890 0.064824 -0.335532 0.395991 0.051165 -0.261186 -0.295893
1863 0.315683 0.259390 0.242350 0.121643 0.259587 0.073355 0.021673 -0.037863 -0.109885 0.153577 0.109964 0.040640 -0.052120 0.033147 0.089458 -0.209623 -0.130872 -0.375830 -0.051165 0.024732 -0.279779 -0.178866 0.111458 -0.122003 -0.013732 -0.171322 -0.197733 -0.397487 -0.110175 -0.219450 -0.198438 -0.086404
5000 0.284186 0.407546 0.106050 -0.101779 0.094257 -0.285443 -0.305812 -0.290942 0.288718 0.321347 0.079562 -0.008382 0.113037 0.329797 0.058000 -0.049088 -0.145002 -0.146638 -0.192898 0.012294 -0.224501 0.176710 -0.131458 0.100349 0.040632 -0.111288 -0.219315 0.004755 -0.180383 0.097357 -0.081084 -0.010355
4773 0.137504 0.069497 0.087573 -0.079567 0.372550 -0.187846 -0.141454 -0.121319 0.123499 -0.045586 -0.051992 -0.128879 -0.167631 0.147425 0.241657 -0.431291 0.081722 -0.256069 0.147234 0.096592 -0.038676 -0.077123 -0.208720 0.205509 0.139327 -0.129163 -0.197609 -0.212699 0.026137 0.041948 -0.004527 -0.110215
325 0.153200 -0.024070 -0.094518 -0.347456 0.145357 -0.078809 -0.408534 0.071461 0.260730 -0.241247 0.242553 -0.286066 -0.012895 0.093318 0.502344 0.063627 -0.017238 -0.361409 0.144439 -0.057138 -0.132520 -0.165334 0.217559 -0.231890 -0.025789 0.134729 -0.005567 -0.287188 0.354625 -0.085213 0.211590 -0.073271
6493 -0.061780 0.079050 0.108429 0.073178 0.258856 -0.007025 -0.018915 -0.083130 0.081265 -0.009475 0.116177 -0.241344 -0.062380 -0.015639 0.348234 -0.090784 -0.006551 -0.500231 -0.162977 -0.117623 -0.393801 -0.064082 0.090811 -0.044907 0.183099 -0.051246 -0.000183 -0.248271 -0.013987 -0.029548 -0.288281 -0.066320
131 0.327652 0.453376 0.038519 -0.423558 0.339672 -0.069347 0.129416 -0.438232 0.515643 -0.431353 -0.264568 -0.108484 0.055764 0.208650 0.175595 -0.000043 -0.062565 -0.197321 -0.231029 -0.424635 0.207638 -0.246206 -0.217785 0.359142 0.185886 0.009401 0.087790 -0.083333 0.387833 -0.297710 0.578718 0.182533
654 0.087449 0.293968 0.113284 0.014911 0.208694 -0.272478 -0.299859 0.134110 0.293696 0.293752 0.171616 -0.178227 -0.084254 0.156232 0.043553 -0.048128 -0.100974 -0.305159 -0.115248 0.011040 -0.544376 0.266817 0.106634 0.111378 0.042772 0.051688 -0.516247 0.243826 -0.080418 0.104174 0.160603 0.175202
5752 0.044484 0.315602 0.041346 -0.024074 0.161591 -0.370275 -0.322252 -0.125658 0.148449 0.468923 0.184619 0.069268 0.086725 0.139102 -0.015679 -0.338298 -0.088925 -0.131642 -0.291629 0.016903 -0.357922 -0.113872 -0.064205 -0.000877 0.016890 -0.226270 -0.234550 0.129534 0.085987 -0.046232 -0.063536 0.166703
3036 0.062452 -0.113128 -0.097260 -0.027624 0.259498 -0.104028 -0.067929 -0.233688 0.217910 0.123508 -0.000256 0.001515 -0.032567 0.151459 0.180475 -0.306074 -0.161884 -0.272812 0.018595 -0.104798 -0.206282 -0.130935 0.245877 0.283708 -0.024175 -0.108442 0.228719 -0.388516 0.067372 -0.056792 0.081582 -0.071532
6448 0.111324 -0.105702 0.127958 0.204971 0.352793 0.365236 -0.011103 -0.006569 0.302435 -0.040559 0.293891 -0.238430 -0.085177 0.417547 0.297524 0.131003 -0.240968 -0.234911 -0.249445 -0.076658 -0.067636 -0.281023 -0.134799 0.039657 -0.217921 -0.382632 -0.190696 -0.447361 -0.015579 0.119224 0.131327 0.092393
2445 0.234000 0.504624 -0.113229 -0.110366 0.136899 -0.418637 -0.260609 -0.258021 0.382733 0.227674 0.266880 0.117990 0.068841 0.382983 0.098526 -0.015112 -0.144771 -0.250932 -0.286302 -0.023494 -0.504116 0.242443 -0.173917 0.107511 -0.052646 -0.114447 -0.258474 0.210456 -0.391020 0.064939 -0.167860 -0.045516
2389 0.109946 0.039127 0.055102 -0.182001 0.301644 -0.055668 -0.019957 -0.001634 0.180349 0.028981 0.014162 0.083837 -0.212270 -0.014540 0.351470 -0.293189 -0.036994 -0.296506 0.091238 -0.128705 -0.544686 -0.306694 -0.118986 0.048554 0.042667 -0.380927 0.242305 -0.370732 -0.071785 -0.014474 -0.020320 0.062371
3755 -0.055056 0.140340 0.285439 0.093297 0.356221 -0.106233 -0.414183 -0.280086 0.267031 0.151083 -0.118190 -0.098540 -0.134933 0.192558 0.363389 -0.262709 0.016683 -0.088086 0.283292 -0.062565 -0.312292 -0.227433 -0.056552 -0.033456 0.075602 -0.041028 -0.220838 -0.030289 -0.053943 0.258752 -0.149323 -0.029585
4664 0.188618 0.119795 0.177483 0.012509 0.171385 -0.088379 0.001548 -0.079989 0.096413 0.306161 -0.163342 0.081234 0.207688 -0.131043 0.097625 -0.171890 0.224810 -0.337513 -0.239812 0.119601 -0.198522 0.127491 0.140040 0.079602 -0.065184 -0.149760 -0.195400 -0.409374 0.197200 -0.089904 -0.046771 -0.248307
48 0.067021 0.036195 0.016307 -0.064521 0.063110 -0.202876 -0.267928 -0.118814 0.448759 -0.132209 0.198233 -0.303661 0.058898 0.245013 0.384223 -0.098162 0.121143 -0.271207 -0.373521 -0.227229 0.144782 0.030344 0.080733 0.339151 0.137513 -0.040767 -0.030813 -0.085679 -0.016105 -0.129923 0.148893 0.164600
5643 0.197496 0.132992 -0.073469 -0.005462 0.155135 -0.114293 -0.175449 -0.152786 0.076506 0.284157 0.137006 0.099126 0.207179 0.055211 0.082677 -0.395512 -0.047305 -0.174417 -0.040326 -0.005313 -0.365465 0.012610 0.040110 0.241888 0.155002 -0.100381 -0.082629 -0.199435 0.200107 0.081073 0.035690 -0.130883
3799 0.285142 0.218710 0.457410 0.126752 0.294042 0.041251 -0.212861 -0.085701 0.102842 0.038796 0.025979 0.002717 -0.010518 0.275679 0.358173 -0.225329 -0.123600 -0.134176 -0.035016 -0.083353 -0.062410 -0.353527 -0.043435 -0.235995 -0.000731 0.058606 -0.184945 -0.158308 0.199230 -0.109017 -0.391333 0.022529
2280 0.279210 -0.222646 -0.168463 0.080386 0.034556 -0.085923 -0.327020 -0.185217 0.426071 0.113967 0.143193 -0.471344 -0.085293 0.168616 0.481743 0.041238 0.110184 -0.235526 -0.019900 0.188799 0.284980 -0.174033 0.208458 0.145618 0.195275 -0.020060 -0.062394 -0.279477 0.131359 0.072537 0.158464 0.076466
4604 0.327148 0.124285 0.100824 0.005110 0.491042 0.446033 -0.120133 -0.054778 0.022259 0.296027 0.086610 0.097180 0.350072 0.079186 0.325314 -0.403864 0.013638 -0.153858 -0.193183 -0.049724 -0.030377 0.170629 -0.161074 0.100099 0.322403 0.214121 0.068477 -0.154478 0.353337 -0.120640 -0.007792 -0.125742
3207 0.313118 0.171186 0.064294 0.206970 0.427039 0.370631 -0.193115 -0.098875 0.299966 0.055592 0.100554 0.064425 0.127263 0.095891 0.303787 -0.357237 -0.113634 0.139803 -0.200082 0.060573 0.061663 0.242227 0.153511 -0.038959 0.245194 0.097913 -0.103673 -0.302208 0.350957 -0.127780 0.109386 -0.044298
4545 0.281689 0.128439 -0.143562 -0.299856 0.087017 -0.111356 -0.494371 0.090856 -0.045404 0.093303 0.189554 -0.412931 -0.221743 0.265002 -0.033152 -0.092490 -0.082600 -0.276057 0.057807 -0.387337 -0.119859 0.045488 0.119482 -0.017783 -0.105076 0.218793 -0.261863 -0.236050 0.467793 -0.117483 -0.151904 0.027799
5511 0.243240 0.209255 0.164025 0.020867 0.280735 0.359651 -0.149518 0.118261 0.034616 0.002768 -0.004331 -0.065401 0.048259 0.141238 0.088712 -0.244303 0.006600 -0.345182 -0.125339 -0.009479 -0.208390 0.111547 0.117916 0.114394 0.246565 0.095158 -0.062645 -0.251408 0.239541 -0.168559 0.029123 0.013451
5238 0.130802 0.291203 0.098778 -0.096938 0.275538 -0.207877 -0.122249 -0.213376 0.228089 0.178521 0.094947 0.148500 -0.033173 0.276178 0.129862 -0.289413 0.085782 -0.321330 -0.233188 -0.054599 -0.371092 -0.002631 -0.163827 -0.091551 0.044193 -0.104290 -0.268561 0.157570 -0.129631 -0.049339 0.019060 -0.054518
1055 0.109920 0.301381 -0.057695 -0.130757 -0.003394 -0.006705 -0.388796 -0.005718 0.055788 -0.027941 0.268290 -0.336242 -0.154259 0.136037 0.400227 -0.012565 -0.086585 -0.389360 0.059403 -0.088390 0.023723 -0.102222 0.227261 -0.102818 0.004106 -0.041482 -0.098653 -0.210432 0.425774 -0.143483 -0.156071 0.021580
3142 0.018240 -0.034004 0.155118 -0.077665 0.275511 -0.021836 0.034021 0.016275 0.114677 0.051050 0.143717 -0.292866 -0.005240 0.331538 0.432582 0.091566 0.039280 -0.303525 -0.159643 -0.005845 -0.088820 -0.117144 0.225537 0.011437 0.220564 -0.103047 -0.205356 -0.283103 0.026973 0.007282 0.065467 0.096110
1776 0.088333 -0.118817 0.135186 0.035763 0.259469 -0.206371 0.114668 0.032133 0.217530 0.021711 -0.035207 -0.331381 -0.027786 0.333158 0.606637 -0.032792 0.050699 -0.257485 -0.085446 0.018801 -0.044657 -0.280539 0.175064 0.001158 0.282778 0.064986 -0.188469 -0.190822 0.096220 -0.100265 -0.107392 0.104365
969 -0.029319 0.063154 0.141103 0.044704 0.218177 -0.091397 -0.130551 -0.048539 0.205887 0.011647 -0.021076 -0.052946 -0.101269 0.060923 0.417758 -0.131866 -0.011246 -0.422943 -0.136206 -0.122595 -0.441124 -0.401009 0.068280 -0.053488 0.196444 0.175824 -0.186720 -0.134530 -0.130147 0.001397 -0.271949 0.110260
87 0.315208 0.144275 -0.057774 0.023633 0.362741 0.360964 -0.172988 -0.102532 0.157124 0.189479 0.076158 -0.053490 0.044993 0.279361 0.163721 -0.106549 -0.019987 -0.142611 -0.121448 0.247007 0.078529 0.043104 0.161789 -0.131276 0.220573 -0.016559 -0.046910 -0.299732 0.305253 -0.089942 0.142044 0.033722
